## MART
## No. of trees = 1000
## No. of leaves = 10
## No. of threshold candidates = 256
## Learning rate = 0.1
## Stop early = 100

<ensemble>
	<tree id="1" weight="0.1">
		<split>
			<feature> 29 </feature>
			<threshold> 6.392113 </threshold>
			<split pos="left">
				<feature> 4 </feature>
				<threshold> 3.4318738 </threshold>
				<split pos="left">
					<feature> 7 </feature>
					<threshold> 1.6809669 </threshold>
					<split pos="left">
						<feature> 28 </feature>
						<threshold> 4.5247855 </threshold>
						<split pos="left">
							<feature> 11 </feature>
							<threshold> 1.2001565 </threshold>
							<split pos="left">
								<output> 0.16969558596611023 </output>
							</split>
							<split pos="right">
								<output> 0.3025658130645752 </output>
							</split>
						</split>
						<split pos="right">
							<output> 0.7247706651687622 </output>
						</split>
					</split>
					<split pos="right">
						<feature> 8 </feature>
						<threshold> 11.973338 </threshold>
						<split pos="left">
							<feature> 10 </feature>
							<threshold> 1.6862501 </threshold>
							<split pos="left">
								<output> 0.2571428716182709 </output>
							</split>
							<split pos="right">
								<output> 0.4275585114955902 </output>
							</split>
						</split>
						<split pos="right">
							<output> 0.6222645044326782 </output>
						</split>
					</split>
				</split>
				<split pos="right">
					<output> 0.768530547618866 </output>
				</split>
			</split>
			<split pos="right">
				<feature> 11 </feature>
				<threshold> 1.2001565 </threshold>
				<split pos="left">
					<output> 0.5439093708992004 </output>
				</split>
				<split pos="right">
					<feature> 26 </feature>
					<threshold> 2.9799726 </threshold>
					<split pos="left">
						<output> 0.6737078428268433 </output>
					</split>
					<split pos="right">
						<output> 1.1751527786254883 </output>
					</split>
				</split>
			</split>
		</split>
	</tree>
	<tree id="2" weight="0.1">
		<split>
			<feature> 29 </feature>
			<threshold> 5.900412 </threshold>
			<split pos="left">
				<feature> 4 </feature>
				<threshold> 3.4318738 </threshold>
				<split pos="left">
					<feature> 10 </feature>
					<threshold> 1.1291864 </threshold>
					<split pos="left">
						<feature> 7 </feature>
						<threshold> 4.622657 </threshold>
						<split pos="left">
							<output> 0.16220800578594208 </output>
						</split>
						<split pos="right">
							<output> 0.42875799536705017 </output>
						</split>
					</split>
					<split pos="right">
						<feature> 30 </feature>
						<threshold> 2.1299438 </threshold>
						<split pos="left">
							<feature> 5 </feature>
							<threshold> 9.05537 </threshold>
							<split pos="left">
								<output> 0.3204672634601593 </output>
							</split>
							<split pos="right">
								<output> 0.8179145455360413 </output>
							</split>
						</split>
						<split pos="right">
							<output> 0.5932855010032654 </output>
						</split>
					</split>
				</split>
				<split pos="right">
					<output> 0.6955640316009521 </output>
				</split>
			</split>
			<split pos="right">
				<feature> 11 </feature>
				<threshold> 1.2001565 </threshold>
				<split pos="left">
					<output> 0.4774287939071655 </output>
				</split>
				<split pos="right">
					<feature> 25 </feature>
					<threshold> 3.633466 </threshold>
					<split pos="left">
						<feature> 26 </feature>
						<threshold> 2.9799726 </threshold>
						<split pos="left">
							<output> 0.5927620530128479 </output>
						</split>
						<split pos="right">
							<output> 0.9182049632072449 </output>
						</split>
					</split>
					<split pos="right">
						<output> 1.3657636642456055 </output>
					</split>
				</split>
			</split>
		</split>
	</tree>
	<tree id="3" weight="0.1">
		<split>
			<feature> 29 </feature>
			<threshold> 7.539416 </threshold>
			<split pos="left">
				<feature> 4 </feature>
				<threshold> 3.4318738 </threshold>
				<split pos="left">
					<feature> 7 </feature>
					<threshold> 1.6809669 </threshold>
					<split pos="left">
						<feature> 5 </feature>
						<threshold> 7.5205636 </threshold>
						<split pos="left">
							<feature> 38 </feature>
							<threshold> 4.6780276 </threshold>
							<split pos="left">
								<feature> 10 </feature>
								<threshold> 1.9873656 </threshold>
								<split pos="left">
									<output> 0.1379282921552658 </output>
								</split>
								<split pos="right">
									<output> 0.25447434186935425 </output>
								</split>
							</split>
							<split pos="right">
								<output> 0.969432532787323 </output>
							</split>
						</split>
						<split pos="right">
							<output> 0.49340173602104187 </output>
						</split>
					</split>
					<split pos="right">
						<feature> 8 </feature>
						<threshold> 15.069895 </threshold>
						<split pos="left">
							<feature> 10 </feature>
							<threshold> 1.6862501 </threshold>
							<split pos="left">
								<output> 0.23217783868312836 </output>
							</split>
							<split pos="right">
								<output> 0.3657219409942627 </output>
							</split>
						</split>
						<split pos="right">
							<output> 0.6091955900192261 </output>
						</split>
					</split>
				</split>
				<split pos="right">
					<output> 0.6226664781570435 </output>
				</split>
			</split>
			<split pos="right">
				<feature> 11 </feature>
				<threshold> 1.2001565 </threshold>
				<split pos="left">
					<output> 0.4685858488082886 </output>
				</split>
				<split pos="right">
					<output> 0.834958553314209 </output>
				</split>
			</split>
		</split>
	</tree>
	<tree id="4" weight="0.1">
		<split>
			<feature> 28 </feature>
			<threshold> 4.0399866 </threshold>
			<split pos="left">
				<feature> 29 </feature>
				<threshold> 5.7365117 </threshold>
				<split pos="left">
					<feature> 31 </feature>
					<threshold> 1.813178 </threshold>
					<split pos="left">
						<feature> 10 </feature>
						<threshold> 2.047589 </threshold>
						<split pos="left">
							<output> 0.11880851536989212 </output>
						</split>
						<split pos="right">
							<output> 0.24611511826515198 </output>
						</split>
					</split>
					<split pos="right">
						<feature> 4 </feature>
						<threshold> 3.5810857 </threshold>
						<split pos="left">
							<feature> 7 </feature>
							<threshold> 7.844507 </threshold>
							<split pos="left">
								<feature> 32 </feature>
								<threshold> 10.433431 </threshold>
								<split pos="left">
									<output> 0.23625989258289337 </output>
								</split>
								<split pos="right">
									<output> 0.3920851945877075 </output>
								</split>
							</split>
							<split pos="right">
								<output> 0.5404078960418701 </output>
							</split>
						</split>
						<split pos="right">
							<output> 0.7054747343063354 </output>
						</split>
					</split>
				</split>
				<split pos="right">
					<feature> 11 </feature>
					<threshold> 0.76373595 </threshold>
					<split pos="left">
						<output> 0.27859222888946533 </output>
					</split>
					<split pos="right">
						<output> 0.5820360779762268 </output>
					</split>
				</split>
			</split>
			<split pos="right">
				<feature> 10 </feature>
				<threshold> 1.159298 </threshold>
				<split pos="left">
					<output> 0.5350015163421631 </output>
				</split>
				<split pos="right">
					<output> 0.9753322005271912 </output>
				</split>
			</split>
		</split>
	</tree>
	<tree id="5" weight="0.1">
		<split>
			<feature> 5 </feature>
			<threshold> 7.6740446 </threshold>
			<split pos="left">
				<feature> 4 </feature>
				<threshold> 3.7302976 </threshold>
				<split pos="left">
					<feature> 10 </feature>
					<threshold> 1.1291864 </threshold>
					<split pos="left">
						<feature> 39 </feature>
						<threshold> 4.202343 </threshold>
						<split pos="left">
							<feature> 11 </feature>
							<threshold> 1.2219775 </threshold>
							<split pos="left">
								<output> 0.10246646404266357 </output>
							</split>
							<split pos="right">
								<output> 0.26514506340026855 </output>
							</split>
						</split>
						<split pos="right">
							<output> 0.562254786491394 </output>
						</split>
					</split>
					<split pos="right">
						<feature> 37 </feature>
						<threshold> 1.8948972 </threshold>
						<split pos="left">
							<feature> 6 </feature>
							<threshold> 3.7564569 </threshold>
							<split pos="left">
								<feature> 25 </feature>
								<threshold> 3.303151 </threshold>
								<split pos="left">
									<output> 0.24112384021282196 </output>
								</split>
								<split pos="right">
									<output> 0.5971657037734985 </output>
								</split>
							</split>
							<split pos="right">
								<output> 0.743305504322052 </output>
							</split>
						</split>
						<split pos="right">
							<output> 0.673796534538269 </output>
						</split>
					</split>
				</split>
				<split pos="right">
					<output> 0.5476511120796204 </output>
				</split>
			</split>
			<split pos="right">
				<feature> 11 </feature>
				<threshold> 2.1602814 </threshold>
				<split pos="left">
					<output> 0.38419127464294434 </output>
				</split>
				<split pos="right">
					<output> 0.7130360007286072 </output>
				</split>
			</split>
		</split>
	</tree>
	<tree id="6" weight="0.1">
		<split>
			<feature> 28 </feature>
			<threshold> 4.0399866 </threshold>
			<split pos="left">
				<feature> 2 </feature>
				<threshold> 3.34193 </threshold>
				<split pos="left">
					<feature> 7 </feature>
					<threshold> 1.8210474 </threshold>
					<split pos="left">
						<feature> 38 </feature>
						<threshold> 1.9541128 </threshold>
						<split pos="left">
							<output> 0.09427325427532196 </output>
						</split>
						<split pos="right">
							<output> 0.34090688824653625 </output>
						</split>
					</split>
					<split pos="right">
						<feature> 31 </feature>
						<threshold> 5.579012 </threshold>
						<split pos="left">
							<feature> 6 </feature>
							<threshold> 5.239268 </threshold>
							<split pos="left">
								<feature> 10 </feature>
								<threshold> 1.6561385 </threshold>
								<split pos="left">
									<output> 0.12379603832960129 </output>
								</split>
								<split pos="right">
									<output> 0.24647419154644012 </output>
								</split>
							</split>
							<split pos="right">
								<output> 0.6610832810401917 </output>
							</split>
						</split>
						<split pos="right">
							<output> 0.387817919254303 </output>
						</split>
					</split>
				</split>
				<split pos="right">
					<feature> 11 </feature>
					<threshold> 0.0 </threshold>
					<split pos="left">
						<output> 0.22735340893268585 </output>
					</split>
					<split pos="right">
						<output> 0.5335789322853088 </output>
					</split>
				</split>
			</split>
			<split pos="right">
				<feature> 10 </feature>
				<threshold> 1.897031 </threshold>
				<split pos="left">
					<output> 0.44262391328811646 </output>
				</split>
				<split pos="right">
					<output> 0.8312121033668518 </output>
				</split>
			</split>
		</split>
	</tree>
	<tree id="7" weight="0.1">
		<split>
			<feature> 5 </feature>
			<threshold> 9.822773 </threshold>
			<split pos="left">
				<feature> 25 </feature>
				<threshold> 4.183991 </threshold>
				<split pos="left">
					<feature> 31 </feature>
					<threshold> 1.813178 </threshold>
					<split pos="left">
						<feature> 38 </feature>
						<threshold> 2.0133283 </threshold>
						<split pos="left">
							<feature> 2 </feature>
							<threshold> 3.038118 </threshold>
							<split pos="left">
								<output> 0.08074547350406647 </output>
							</split>
							<split pos="right">
								<output> 0.20019443333148956 </output>
							</split>
						</split>
						<split pos="right">
							<output> 0.3287947475910187 </output>
						</split>
					</split>
					<split pos="right">
						<feature> 7 </feature>
						<threshold> 10.365955 </threshold>
						<split pos="left">
							<feature> 2 </feature>
							<threshold> 3.4432006 </threshold>
							<split pos="left">
								<feature> 4 </feature>
								<threshold> 6.714535 </threshold>
								<split pos="left">
									<feature> 10 </feature>
									<threshold> 1.7163616 </threshold>
									<split pos="left">
										<output> 0.13175861537456512 </output>
									</split>
									<split pos="right">
										<output> 0.2266339510679245 </output>
									</split>
								</split>
								<split pos="right">
									<output> 0.4874553680419922 </output>
								</split>
							</split>
							<split pos="right">
								<output> 0.3700689673423767 </output>
							</split>
						</split>
						<split pos="right">
							<output> 0.6507102847099304 </output>
						</split>
					</split>
				</split>
				<split pos="right">
					<output> 0.5566767454147339 </output>
				</split>
			</split>
			<split pos="right">
				<output> 0.5748329758644104 </output>
			</split>
		</split>
	</tree>
	<tree id="8" weight="0.1">
		<split>
			<feature> 29 </feature>
			<threshold> 8.195017 </threshold>
			<split pos="left">
				<feature> 25 </feature>
				<threshold> 3.853676 </threshold>
				<split pos="left">
					<feature> 31 </feature>
					<threshold> 1.813178 </threshold>
					<split pos="left">
						<feature> 2 </feature>
						<threshold> 3.5444713 </threshold>
						<split pos="left">
							<output> 0.07848376035690308 </output>
						</split>
						<split pos="right">
							<output> 0.20096537470817566 </output>
						</split>
					</split>
					<split pos="right">
						<feature> 7 </feature>
						<threshold> 12.327082 </threshold>
						<split pos="left">
							<feature> 2 </feature>
							<threshold> 3.5444713 </threshold>
							<split pos="left">
								<feature> 32 </feature>
								<threshold> 19.37636 </threshold>
								<split pos="left">
									<feature> 4 </feature>
									<threshold> 7.6098065 </threshold>
									<split pos="left">
										<output> 0.16538338363170624 </output>
									</split>
									<split pos="right">
										<output> 0.4610718786716461 </output>
									</split>
								</split>
								<split pos="right">
									<output> 0.6790005564689636 </output>
								</split>
							</split>
							<split pos="right">
								<output> 0.3585241138935089 </output>
							</split>
						</split>
						<split pos="right">
							<output> 0.6810873746871948 </output>
						</split>
					</split>
				</split>
				<split pos="right">
					<output> 0.4762358069419861 </output>
				</split>
			</split>
			<split pos="right">
				<feature> 11 </feature>
				<threshold> 2.2693865 </threshold>
				<split pos="left">
					<output> 0.28769969940185547 </output>
				</split>
				<split pos="right">
					<output> 0.5696000456809998 </output>
				</split>
			</split>
		</split>
	</tree>
	<tree id="9" weight="0.1">
		<split>
			<feature> 4 </feature>
			<threshold> 3.7302976 </threshold>
			<split pos="left">
				<feature> 5 </feature>
				<threshold> 5.3718295 </threshold>
				<split pos="left">
					<feature> 31 </feature>
					<threshold> 6.415864 </threshold>
					<split pos="left">
						<feature> 10 </feature>
						<threshold> 1.3851346 </threshold>
						<split pos="left">
							<feature> 11 </feature>
							<threshold> 2.4221337 </threshold>
							<split pos="left">
								<output> 0.05005837604403496 </output>
							</split>
							<split pos="right">
								<output> 0.16529200971126556 </output>
							</split>
						</split>
						<split pos="right">
							<feature> 38 </feature>
							<threshold> 2.1317594 </threshold>
							<split pos="left">
								<feature> 28 </feature>
								<threshold> 0.969597 </threshold>
								<split pos="left">
									<output> 0.21703821420669556 </output>
								</split>
								<split pos="right">
									<output> 0.10655921697616577 </output>
								</split>
							</split>
							<split pos="right">
								<output> 0.41705235838890076 </output>
							</split>
						</split>
					</split>
					<split pos="right">
						<output> 0.2991659641265869 </output>
					</split>
				</split>
				<split pos="right">
					<feature> 11 </feature>
					<threshold> 0.0 </threshold>
					<split pos="left">
						<output> 0.13722094893455505 </output>
					</split>
					<split pos="right">
						<output> 0.3584243357181549 </output>
					</split>
				</split>
			</split>
			<split pos="right">
				<feature> 10 </feature>
				<threshold> 1.0539075 </threshold>
				<split pos="left">
					<output> 0.29255563020706177 </output>
				</split>
				<split pos="right">
					<output> 0.6830925345420837 </output>
				</split>
			</split>
		</split>
	</tree>
	<tree id="10" weight="0.1">
		<split>
			<feature> 5 </feature>
			<threshold> 9.9762535 </threshold>
			<split pos="left">
				<feature> 25 </feature>
				<threshold> 4.294096 </threshold>
				<split pos="left">
					<feature> 31 </feature>
					<threshold> 5.8579626 </threshold>
					<split pos="left">
						<feature> 10 </feature>
						<threshold> 1.6561385 </threshold>
						<split pos="left">
							<feature> 11 </feature>
							<threshold> 1.5274718 </threshold>
							<split pos="left">
								<feature> 1 </feature>
								<threshold> 1.9175234 </threshold>
								<split pos="left">
									<output> 0.02336902543902397 </output>
								</split>
								<split pos="right">
									<output> 0.11621170490980148 </output>
								</split>
							</split>
							<split pos="right">
								<output> 0.1658673733472824 </output>
							</split>
						</split>
						<split pos="right">
							<feature> 26 </feature>
							<threshold> 2.7316415 </threshold>
							<split pos="left">
								<feature> 28 </feature>
								<threshold> 0.969597 </threshold>
								<split pos="left">
									<output> 0.2085723876953125 </output>
								</split>
								<split pos="right">
									<output> 0.10097132623195648 </output>
								</split>
							</split>
							<split pos="right">
								<output> 0.3334254324436188 </output>
							</split>
						</split>
					</split>
					<split pos="right">
						<output> 0.2888909876346588 </output>
					</split>
				</split>
				<split pos="right">
					<output> 0.4269375205039978 </output>
				</split>
			</split>
			<split pos="right">
				<feature> 11 </feature>
				<threshold> 2.2693865 </threshold>
				<split pos="left">
					<output> 0.2721482217311859 </output>
				</split>
				<split pos="right">
					<output> 0.5613328814506531 </output>
				</split>
			</split>
		</split>
	</tree>
	<tree id="11" weight="0.1">
		<split>
			<feature> 29 </feature>
			<threshold> 11.145224 </threshold>
			<split pos="left">
				<feature> 25 </feature>
				<threshold> 4.294096 </threshold>
				<split pos="left">
					<feature> 2 </feature>
					<threshold> 3.5444713 </threshold>
					<split pos="left">
						<feature> 7 </feature>
						<threshold> 4.622657 </threshold>
						<split pos="left">
							<feature> 10 </feature>
							<threshold> 1.5808597 </threshold>
							<split pos="left">
								<feature> 17 </feature>
								<threshold> 0.22103626 </threshold>
								<split pos="left">
									<output> 0.030898289754986763 </output>
								</split>
								<split pos="right">
									<output> 0.3063713610172272 </output>
								</split>
							</split>
							<split pos="right">
								<feature> 26 </feature>
								<threshold> 3.8491313 </threshold>
								<split pos="left">
									<feature> 28 </feature>
									<threshold> 1.615995 </threshold>
									<split pos="left">
										<output> 0.19214366376399994 </output>
									</split>
									<split pos="right">
										<output> 0.07574963569641113 </output>
									</split>
								</split>
								<split pos="right">
									<output> 0.3963582217693329 </output>
								</split>
							</split>
						</split>
						<split pos="right">
							<output> 0.20887891948223114 </output>
						</split>
					</split>
					<split pos="right">
						<feature> 11 </feature>
						<threshold> 0.0 </threshold>
						<split pos="left">
							<output> 0.12328845262527466 </output>
						</split>
						<split pos="right">
							<output> 0.3202263116836548 </output>
						</split>
					</split>
				</split>
				<split pos="right">
					<output> 0.39958855509757996 </output>
				</split>
			</split>
			<split pos="right">
				<output> 0.4637710452079773 </output>
			</split>
		</split>
	</tree>
	<tree id="12" weight="0.1">
		<split>
			<feature> 29 </feature>
			<threshold> 11.145224 </threshold>
			<split pos="left">
				<feature> 38 </feature>
				<threshold> 4.618812 </threshold>
				<split pos="left">
					<feature> 10 </feature>
					<threshold> 1.9120867 </threshold>
					<split pos="left">
						<feature> 11 </feature>
						<threshold> 1.8329661 </threshold>
						<split pos="left">
							<feature> 1 </feature>
							<threshold> 1.5180393 </threshold>
							<split pos="left">
								<output> 0.012755656614899635 </output>
							</split>
							<split pos="right">
								<output> 0.10050415992736816 </output>
							</split>
						</split>
						<split pos="right">
							<output> 0.17262926697731018 </output>
						</split>
					</split>
					<split pos="right">
						<feature> 25 </feature>
						<threshold> 3.303151 </threshold>
						<split pos="left">
							<feature> 26 </feature>
							<threshold> 2.7316415 </threshold>
							<split pos="left">
								<feature> 5 </feature>
								<threshold> 11.050617 </threshold>
								<split pos="left">
									<feature> 7 </feature>
									<threshold> 12.467162 </threshold>
									<split pos="left">
										<output> 0.10618911683559418 </output>
									</split>
									<split pos="right">
										<output> 0.7770942449569702 </output>
									</split>
								</split>
								<split pos="right">
									<output> 0.5313652753829956 </output>
								</split>
							</split>
							<split pos="right">
								<output> 0.2884533107280731 </output>
							</split>
						</split>
						<split pos="right">
							<output> 0.5513125658035278 </output>
						</split>
					</split>
				</split>
				<split pos="right">
					<output> 0.5371401309967041 </output>
				</split>
			</split>
			<split pos="right">
				<output> 0.417393296957016 </output>
			</split>
		</split>
	</tree>
	<tree id="13" weight="0.1">
		<split>
			<feature> 4 </feature>
			<threshold> 3.4318738 </threshold>
			<split pos="left">
				<feature> 32 </feature>
				<threshold> 7.8783083 </threshold>
				<split pos="left">
					<feature> 38 </feature>
					<threshold> 1.7764661 </threshold>
					<split pos="left">
						<feature> 10 </feature>
						<threshold> 1.5055808 </threshold>
						<split pos="left">
							<output> 0.023476263508200645 </output>
						</split>
						<split pos="right">
							<feature> 29 </feature>
							<threshold> 10.6535225 </threshold>
							<split pos="left">
								<feature> 25 </feature>
								<threshold> 4.734516 </threshold>
								<split pos="left">
									<feature> 25 </feature>
									<threshold> 1.6515754 </threshold>
									<split pos="left">
										<output> 0.10733754932880402 </output>
									</split>
									<split pos="right">
										<output> 0.011416314169764519 </output>
									</split>
								</split>
								<split pos="right">
									<output> 0.438518226146698 </output>
								</split>
							</split>
							<split pos="right">
								<output> 0.4744751751422882 </output>
							</split>
						</split>
					</split>
					<split pos="right">
						<output> 0.20026037096977234 </output>
					</split>
				</split>
				<split pos="right">
					<feature> 2 </feature>
					<threshold> 5.468614 </threshold>
					<split pos="left">
						<output> 0.14108844101428986 </output>
					</split>
					<split pos="right">
						<output> 0.3364344537258148 </output>
					</split>
				</split>
			</split>
			<split pos="right">
				<feature> 10 </feature>
				<threshold> 1.9120867 </threshold>
				<split pos="left">
					<output> 0.18639957904815674 </output>
				</split>
				<split pos="right">
					<output> 0.5019185543060303 </output>
				</split>
			</split>
		</split>
	</tree>
	<tree id="14" weight="0.1">
		<split>
			<feature> 28 </feature>
			<threshold> 5.3327837 </threshold>
			<split pos="left">
				<feature> 29 </feature>
				<threshold> 5.408711 </threshold>
				<split pos="left">
					<feature> 10 </feature>
					<threshold> 1.9421983 </threshold>
					<split pos="left">
						<feature> 32 </feature>
						<threshold> 15.756602 </threshold>
						<split pos="left">
							<feature> 1 </feature>
							<threshold> 11.585051 </threshold>
							<split pos="left">
								<feature> 1 </feature>
								<threshold> 0.0 </threshold>
								<split pos="left">
									<output> 0.006216650828719139 </output>
								</split>
								<split pos="right">
									<output> 0.0729905441403389 </output>
								</split>
							</split>
							<split pos="right">
								<output> 0.9880677461624146 </output>
							</split>
						</split>
						<split pos="right">
							<output> 0.3473522365093231 </output>
						</split>
					</split>
					<split pos="right">
						<feature> 4 </feature>
						<threshold> 3.4318738 </threshold>
						<split pos="left">
							<feature> 8 </feature>
							<threshold> 17.340696 </threshold>
							<split pos="left">
								<output> 0.08444815874099731 </output>
							</split>
							<split pos="right">
								<output> 0.4870579242706299 </output>
							</split>
						</split>
						<split pos="right">
							<output> 0.36854884028434753 </output>
						</split>
					</split>
				</split>
				<split pos="right">
					<feature> 37 </feature>
					<threshold> 1.4211729 </threshold>
					<split pos="left">
						<output> 0.1408194899559021 </output>
					</split>
					<split pos="right">
						<output> 0.3372596800327301 </output>
					</split>
				</split>
			</split>
			<split pos="right">
				<output> 0.30670830607414246 </output>
			</split>
		</split>
	</tree>
	<tree id="15" weight="0.1">
		<split>
			<feature> 29 </feature>
			<threshold> 11.473024 </threshold>
			<split pos="left">
				<feature> 38 </feature>
				<threshold> 4.618812 </threshold>
				<split pos="left">
					<feature> 2 </feature>
					<threshold> 3.5444713 </threshold>
					<split pos="left">
						<feature> 27 </feature>
						<threshold> 5.58592 </threshold>
						<split pos="left">
							<feature> 7 </feature>
							<threshold> 2.2412891 </threshold>
							<split pos="left">
								<feature> 16 </feature>
								<threshold> 0.0 </threshold>
								<split pos="left">
									<output> 0.021904921159148216 </output>
								</split>
								<split pos="right">
									<output> 1.0019017457962036 </output>
								</split>
							</split>
							<split pos="right">
								<feature> 39 </feature>
								<threshold> 4.7534714 </threshold>
								<split pos="left">
									<feature> 9 </feature>
									<threshold> 7.9235954 </threshold>
									<split pos="left">
										<feature> 31 </feature>
										<threshold> 8.089568 </threshold>
										<split pos="left">
											<output> 0.07048306614160538 </output>
										</split>
										<split pos="right">
											<output> 0.18791399896144867 </output>
										</split>
									</split>
									<split pos="right">
										<output> 0.3467623293399811 </output>
									</split>
								</split>
								<split pos="right">
									<output> 0.4338129460811615 </output>
								</split>
							</split>
						</split>
						<split pos="right">
							<output> 0.46066832542419434 </output>
						</split>
					</split>
					<split pos="right">
						<output> 0.16505298018455505 </output>
					</split>
				</split>
				<split pos="right">
					<output> 0.42747223377227783 </output>
				</split>
			</split>
			<split pos="right">
				<output> 0.33551928400993347 </output>
			</split>
		</split>
	</tree>
	<tree id="16" weight="0.1">
		<split>
			<feature> 5 </feature>
			<threshold> 9.822773 </threshold>
			<split pos="left">
				<feature> 39 </feature>
				<threshold> 5.649055 </threshold>
				<split pos="left">
					<feature> 10 </feature>
					<threshold> 1.0840191 </threshold>
					<split pos="left">
						<feature> 11 </feature>
						<threshold> 1.8111451 </threshold>
						<split pos="left">
							<feature> 2 </feature>
							<threshold> 9.519441 </threshold>
							<split pos="left">
								<output> 0.011616910807788372 </output>
							</split>
							<split pos="right">
								<output> 0.38610774278640747 </output>
							</split>
						</split>
						<split pos="right">
							<output> 0.12423007190227509 </output>
						</split>
					</split>
					<split pos="right">
						<feature> 25 </feature>
						<threshold> 3.523361 </threshold>
						<split pos="left">
							<feature> 26 </feature>
							<threshold> 2.7316415 </threshold>
							<split pos="left">
								<feature> 7 </feature>
								<threshold> 7.9845877 </threshold>
								<split pos="left">
									<feature> 17 </feature>
									<threshold> 1.4367354 </threshold>
									<split pos="left">
										<output> 0.05290678143501282 </output>
									</split>
									<split pos="right">
										<output> 0.6040990352630615 </output>
									</split>
								</split>
								<split pos="right">
									<output> 0.29279929399490356 </output>
								</split>
							</split>
							<split pos="right">
								<output> 0.20566588640213013 </output>
							</split>
						</split>
						<split pos="right">
							<output> 0.44799354672431946 </output>
						</split>
					</split>
				</split>
				<split pos="right">
					<output> 0.49126195907592773 </output>
				</split>
			</split>
			<split pos="right">
				<output> 0.25444716215133667 </output>
			</split>
		</split>
	</tree>
	<tree id="17" weight="0.1">
		<split>
			<feature> 25 </feature>
			<threshold> 4.183991 </threshold>
			<split pos="left">
				<feature> 32 </feature>
				<threshold> 7.8783083 </threshold>
				<split pos="left">
					<feature> 17 </feature>
					<threshold> 1.4367354 </threshold>
					<split pos="left">
						<feature> 10 </feature>
						<threshold> 1.9120867 </threshold>
						<split pos="left">
							<feature> 1 </feature>
							<threshold> 1.9974202 </threshold>
							<split pos="left">
								<output> -0.01058046892285347 </output>
							</split>
							<split pos="right">
								<output> 0.0632079690694809 </output>
							</split>
						</split>
						<split pos="right">
							<feature> 26 </feature>
							<threshold> 4.966621 </threshold>
							<split pos="left">
								<feature> 8 </feature>
								<threshold> 10.941153 </threshold>
								<split pos="left">
									<output> 0.051618319004774094 </output>
								</split>
								<split pos="right">
									<output> 0.24795302748680115 </output>
								</split>
							</split>
							<split pos="right">
								<output> 0.27871307730674744 </output>
							</split>
						</split>
					</split>
					<split pos="right">
						<output> 0.2724762260913849 </output>
					</split>
				</split>
				<split pos="right">
					<feature> 8 </feature>
					<threshold> 16.514952 </threshold>
					<split pos="left">
						<feature> 2 </feature>
						<threshold> 8.506734 </threshold>
						<split pos="left">
							<output> 0.09551309794187546 </output>
						</split>
						<split pos="right">
							<output> 0.4601250886917114 </output>
						</split>
					</split>
					<split pos="right">
						<output> 0.27590444684028625 </output>
					</split>
				</split>
			</split>
			<split pos="right">
				<output> 0.2732349932193756 </output>
			</split>
		</split>
	</tree>
	<tree id="18" weight="0.1">
		<split>
			<feature> 29 </feature>
			<threshold> 11.473024 </threshold>
			<split pos="left">
				<feature> 38 </feature>
				<threshold> 4.1450877 </threshold>
				<split pos="left">
					<feature> 10 </feature>
					<threshold> 1.9120867 </threshold>
					<split pos="left">
						<feature> 11 </feature>
						<threshold> 1.8329661 </threshold>
						<split pos="left">
							<output> 0.007009235210716724 </output>
						</split>
						<split pos="right">
							<output> 0.09940621256828308 </output>
						</split>
					</split>
					<split pos="right">
						<feature> 25 </feature>
						<threshold> 3.303151 </threshold>
						<split pos="left">
							<feature> 31 </feature>
							<threshold> 6.415864 </threshold>
							<split pos="left">
								<feature> 25 </feature>
								<threshold> 2.3122056 </threshold>
								<split pos="left">
									<feature> 9 </feature>
									<threshold> 7.9235954 </threshold>
									<split pos="left">
										<feature> 2 </feature>
										<threshold> 4.1520953 </threshold>
										<split pos="left">
											<output> 0.05645241215825081 </output>
										</split>
										<split pos="right">
											<output> 0.1920735388994217 </output>
										</split>
									</split>
									<split pos="right">
										<output> 0.4811690151691437 </output>
									</split>
								</split>
								<split pos="right">
									<output> -0.04508445784449577 </output>
								</split>
							</split>
							<split pos="right">
								<output> 0.23836056888103485 </output>
							</split>
						</split>
						<split pos="right">
							<output> 0.3562047481536865 </output>
						</split>
					</split>
				</split>
				<split pos="right">
					<output> 0.3013927936553955 </output>
				</split>
			</split>
			<split pos="right">
				<output> 0.25799304246902466 </output>
			</split>
		</split>
	</tree>
	<tree id="19" weight="0.1">
		<split>
			<feature> 37 </feature>
			<threshold> 2.842346 </threshold>
			<split pos="left">
				<feature> 2 </feature>
				<threshold> 8.0003805 </threshold>
				<split pos="left">
					<feature> 8 </feature>
					<threshold> 16.514952 </threshold>
					<split pos="left">
						<feature> 16 </feature>
						<threshold> 0.0 </threshold>
						<split pos="left">
							<feature> 10 </feature>
							<threshold> 1.9120867 </threshold>
							<split pos="left">
								<feature> 17 </feature>
								<threshold> 1.8788078 </threshold>
								<split pos="left">
									<feature> 6 </feature>
									<threshold> 1.581667 </threshold>
									<split pos="left">
										<output> 0.02365710958838463 </output>
									</split>
									<split pos="right">
										<output> -0.038849130272865295 </output>
									</split>
								</split>
								<split pos="right">
									<output> 0.2100236862897873 </output>
								</split>
							</split>
							<split pos="right">
								<feature> 25 </feature>
								<threshold> 4.183991 </threshold>
								<split pos="left">
									<feature> 27 </feature>
									<threshold> 3.478024 </threshold>
									<split pos="left">
										<output> 0.05570628494024277 </output>
									</split>
									<split pos="right">
										<output> 0.2996775507926941 </output>
									</split>
								</split>
								<split pos="right">
									<output> 0.32729125022888184 </output>
								</split>
							</split>
						</split>
						<split pos="right">
							<output> 0.3414524495601654 </output>
						</split>
					</split>
					<split pos="right">
						<output> 0.17553816735744476 </output>
					</split>
				</split>
				<split pos="right">
					<output> 0.2400510311126709 </output>
				</split>
			</split>
			<split pos="right">
				<output> 0.25757816433906555 </output>
			</split>
		</split>
	</tree>
	<tree id="20" weight="0.1">
		<split>
			<feature> 28 </feature>
			<threshold> 3.7167876 </threshold>
			<split pos="left">
				<feature> 31 </feature>
				<threshold> 6.415864 </threshold>
				<split pos="left">
					<feature> 32 </feature>
					<threshold> 19.589287 </threshold>
					<split pos="left">
						<feature> 10 </feature>
						<threshold> 1.5808597 </threshold>
						<split pos="left">
							<feature> 1 </feature>
							<threshold> 11.824741 </threshold>
							<split pos="left">
								<feature> 32 </feature>
								<threshold> 4.684398 </threshold>
								<split pos="left">
									<output> -0.012054791674017906 </output>
								</split>
								<split pos="right">
									<output> 0.04765871539711952 </output>
								</split>
							</split>
							<split pos="right">
								<output> 1.1075307130813599 </output>
							</split>
						</split>
						<split pos="right">
							<feature> 4 </feature>
							<threshold> 3.7302976 </threshold>
							<split pos="left">
								<feature> 1 </feature>
								<threshold> 2.4768014 </threshold>
								<split pos="left">
									<feature> 26 </feature>
									<threshold> 5.463283 </threshold>
									<split pos="left">
										<output> 0.05151299387216568 </output>
									</split>
									<split pos="right">
										<output> 0.20846037566661835 </output>
									</split>
								</split>
								<split pos="right">
									<output> -0.08724254369735718 </output>
								</split>
							</split>
							<split pos="right">
								<output> 0.31222471594810486 </output>
							</split>
						</split>
					</split>
					<split pos="right">
						<output> 0.3457600176334381 </output>
					</split>
				</split>
				<split pos="right">
					<output> 0.16422061622142792 </output>
				</split>
			</split>
			<split pos="right">
				<output> 0.16323018074035645 </output>
			</split>
		</split>
	</tree>
	<tree id="21" weight="0.1">
		<split>
			<feature> 29 </feature>
			<threshold> 11.636925 </threshold>
			<split pos="left">
				<feature> 39 </feature>
				<threshold> 4.6156893 </threshold>
				<split pos="left">
					<feature> 2 </feature>
					<threshold> 8.0003805 </threshold>
					<split pos="left">
						<feature> 30 </feature>
						<threshold> 11.478018 </threshold>
						<split pos="left">
							<feature> 17 </feature>
							<threshold> 1.4367354 </threshold>
							<split pos="left">
								<feature> 16 </feature>
								<threshold> 5.466171 </threshold>
								<split pos="left">
									<feature> 10 </feature>
									<threshold> 1.9120867 </threshold>
									<split pos="left">
										<feature> 6 </feature>
										<threshold> 0.6919793 </threshold>
										<split pos="left">
											<output> 0.01983010768890381 </output>
										</split>
										<split pos="right">
											<output> -0.049836255609989166 </output>
										</split>
									</split>
									<split pos="right">
										<feature> 25 </feature>
										<threshold> 3.523361 </threshold>
										<split pos="left">
											<output> 0.045836810022592545 </output>
										</split>
										<split pos="right">
											<output> 0.2466297447681427 </output>
										</split>
									</split>
								</split>
								<split pos="right">
									<output> 0.6199212670326233 </output>
								</split>
							</split>
							<split pos="right">
								<output> 0.18174786865711212 </output>
							</split>
						</split>
						<split pos="right">
							<output> 0.40387624502182007 </output>
						</split>
					</split>
					<split pos="right">
						<output> 0.18065008521080017 </output>
					</split>
				</split>
				<split pos="right">
					<output> 0.26646316051483154 </output>
				</split>
			</split>
			<split pos="right">
				<output> 0.20606578886508942 </output>
			</split>
		</split>
	</tree>
	<tree id="22" weight="0.1">
		<split>
			<feature> 26 </feature>
			<threshold> 6.7049384 </threshold>
			<split pos="left">
				<feature> 38 </feature>
				<threshold> 6.2768474 </threshold>
				<split pos="left">
					<feature> 17 </feature>
					<threshold> 9.283523 </threshold>
					<split pos="left">
						<feature> 16 </feature>
						<threshold> 0.0 </threshold>
						<split pos="left">
							<feature> 8 </feature>
							<threshold> 10.941153 </threshold>
							<split pos="left">
								<feature> 9 </feature>
								<threshold> 1.0290383 </threshold>
								<split pos="left">
									<feature> 2 </feature>
									<threshold> 3.2406592 </threshold>
									<split pos="left">
										<feature> 17 </feature>
										<threshold> 1.4367354 </threshold>
										<split pos="left">
											<feature> 26 </feature>
											<threshold> 4.469959 </threshold>
											<split pos="left">
												<output> 0.01998610608279705 </output>
											</split>
											<split pos="right">
												<output> 0.19999782741069794 </output>
											</split>
										</split>
										<split pos="right">
											<output> 0.4922413229942322 </output>
										</split>
									</split>
									<split pos="right">
										<output> 0.12533463537693024 </output>
									</split>
								</split>
								<split pos="right">
									<output> -0.031704019755125046 </output>
								</split>
							</split>
							<split pos="right">
								<output> 0.10403444617986679 </output>
							</split>
						</split>
						<split pos="right">
							<output> 0.3584803342819214 </output>
						</split>
					</split>
					<split pos="right">
						<output> -0.36420169472694397 </output>
					</split>
				</split>
				<split pos="right">
					<output> 0.3816041350364685 </output>
				</split>
			</split>
			<split pos="right">
				<output> 0.1843973845243454 </output>
			</split>
		</split>
	</tree>
	<tree id="23" weight="0.1">
		<split>
			<feature> 37 </feature>
			<threshold> 3.1976392 </threshold>
			<split pos="left">
				<feature> 10 </feature>
				<threshold> 1.5808597 </threshold>
				<split pos="left">
					<feature> 20 </feature>
					<threshold> 7.3748894 </threshold>
					<split pos="left">
						<feature> 16 </feature>
						<threshold> 0.0 </threshold>
						<split pos="left">
							<feature> 32 </feature>
							<threshold> 12.562699 </threshold>
							<split pos="left">
								<output> 0.002563054906204343 </output>
							</split>
							<split pos="right">
								<output> 0.11830353736877441 </output>
							</split>
						</split>
						<split pos="right">
							<output> 0.5283487439155579 </output>
						</split>
					</split>
					<split pos="right">
						<output> -0.2924986481666565 </output>
					</split>
				</split>
				<split pos="right">
					<feature> 1 </feature>
					<threshold> 4.3943276 </threshold>
					<split pos="left">
						<feature> 27 </feature>
						<threshold> 3.5834186 </threshold>
						<split pos="left">
							<feature> 8 </feature>
							<threshold> 25.598143 </threshold>
							<split pos="left">
								<feature> 37 </feature>
								<threshold> 1.8948972 </threshold>
								<split pos="left">
									<output> 0.03204605355858803 </output>
								</split>
								<split pos="right">
									<output> 0.28338825702667236 </output>
								</split>
							</split>
							<split pos="right">
								<output> 0.5051918029785156 </output>
							</split>
						</split>
						<split pos="right">
							<output> 0.3050628900527954 </output>
						</split>
					</split>
					<split pos="right">
						<output> 0.32842403650283813 </output>
					</split>
				</split>
			</split>
			<split pos="right">
				<output> 0.19932375848293304 </output>
			</split>
		</split>
	</tree>
	<tree id="24" weight="0.1">
		<split>
			<feature> 2 </feature>
			<threshold> 8.0003805 </threshold>
			<split pos="left">
				<feature> 37 </feature>
				<threshold> 5.5070453 </threshold>
				<split pos="left">
					<feature> 8 </feature>
					<threshold> 16.514952 </threshold>
					<split pos="left">
						<feature> 9 </feature>
						<threshold> 1.0290383 </threshold>
						<split pos="left">
							<feature> 16 </feature>
							<threshold> 0.0 </threshold>
							<split pos="left">
								<feature> 30 </feature>
								<threshold> 2.1299438 </threshold>
								<split pos="left">
									<feature> 29 </feature>
									<threshold> 10.161821 </threshold>
									<split pos="left">
										<feature> 18 </feature>
										<threshold> 3.6019557 </threshold>
										<split pos="left">
											<feature> 28 </feature>
											<threshold> 12.281555 </threshold>
											<split pos="left">
												<output> 0.014562499709427357 </output>
											</split>
											<split pos="right">
												<output> 0.6960625052452087 </output>
											</split>
										</split>
										<split pos="right">
											<output> 1.2052236795425415 </output>
										</split>
									</split>
									<split pos="right">
										<output> 0.24963058531284332 </output>
									</split>
								</split>
								<split pos="right">
									<output> 0.1273496001958847 </output>
								</split>
							</split>
							<split pos="right">
								<output> 0.5784206390380859 </output>
							</split>
						</split>
						<split pos="right">
							<output> -0.01622670330107212 </output>
						</split>
					</split>
					<split pos="right">
						<output> 0.12522009015083313 </output>
					</split>
				</split>
				<split pos="right">
					<output> 0.39771410822868347 </output>
				</split>
			</split>
			<split pos="right">
				<output> 0.18120847642421722 </output>
			</split>
		</split>
	</tree>
	<tree id="25" weight="0.1">
		<split>
			<feature> 29 </feature>
			<threshold> 11.636925 </threshold>
			<split pos="left">
				<feature> 39 </feature>
				<threshold> 4.6156893 </threshold>
				<split pos="left">
					<feature> 10 </feature>
					<threshold> 1.9120867 </threshold>
					<split pos="left">
						<feature> 11 </feature>
						<threshold> 0.043642066 </threshold>
						<split pos="left">
							<output> -0.012544764205813408 </output>
						</split>
						<split pos="right">
							<output> 0.06615714728832245 </output>
						</split>
					</split>
					<split pos="right">
						<feature> 25 </feature>
						<threshold> 4.954726 </threshold>
						<split pos="left">
							<feature> 9 </feature>
							<threshold> 7.8206916 </threshold>
							<split pos="left">
								<feature> 31 </feature>
								<threshold> 6.83429 </threshold>
								<split pos="left">
									<feature> 4 </feature>
									<threshold> 9.40035 </threshold>
									<split pos="left">
										<feature> 37 </feature>
										<threshold> 4.38195 </threshold>
										<split pos="left">
											<output> 0.02571428380906582 </output>
										</split>
										<split pos="right">
											<output> -0.3166770339012146 </output>
										</split>
									</split>
									<split pos="right">
										<output> 0.3003528416156769 </output>
									</split>
								</split>
								<split pos="right">
									<output> 0.17010141909122467 </output>
								</split>
							</split>
							<split pos="right">
								<output> 0.3429824411869049 </output>
							</split>
						</split>
						<split pos="right">
							<output> 0.28230834007263184 </output>
						</split>
					</split>
				</split>
				<split pos="right">
					<output> 0.19874818623065948 </output>
				</split>
			</split>
			<split pos="right">
				<output> 0.14871594309806824 </output>
			</split>
		</split>
	</tree>
	<tree id="26" weight="0.1">
		<split>
			<feature> 2 </feature>
			<threshold> 8.405463 </threshold>
			<split pos="left">
				<feature> 39 </feature>
				<threshold> 5.373491 </threshold>
				<split pos="left">
					<feature> 10 </feature>
					<threshold> 1.5808597 </threshold>
					<split pos="left">
						<feature> 20 </feature>
						<threshold> 8.112378 </threshold>
						<split pos="left">
							<feature> 17 </feature>
							<threshold> 1.8788078 </threshold>
							<split pos="left">
								<feature> 32 </feature>
								<threshold> 34.920048 </threshold>
								<split pos="left">
									<feature> 6 </feature>
									<threshold> 0.6919793 </threshold>
									<split pos="left">
										<output> 0.01608479581773281 </output>
									</split>
									<split pos="right">
										<output> -0.043174345046281815 </output>
									</split>
								</split>
								<split pos="right">
									<output> 0.44949600100517273 </output>
								</split>
							</split>
							<split pos="right">
								<output> 0.23004458844661713 </output>
							</split>
						</split>
						<split pos="right">
							<output> -0.26774442195892334 </output>
						</split>
					</split>
					<split pos="right">
						<feature> 25 </feature>
						<threshold> 4.954726 </threshold>
						<split pos="left">
							<feature> 8 </feature>
							<threshold> 17.340696 </threshold>
							<split pos="left">
								<output> 0.032029785215854645 </output>
							</split>
							<split pos="right">
								<output> 0.22658097743988037 </output>
							</split>
						</split>
						<split pos="right">
							<output> 0.3039836883544922 </output>
						</split>
					</split>
				</split>
				<split pos="right">
					<output> 0.2596399784088135 </output>
				</split>
			</split>
			<split pos="right">
				<output> 0.16760902106761932 </output>
			</split>
		</split>
	</tree>
	<tree id="27" weight="0.1">
		<split>
			<feature> 26 </feature>
			<threshold> 6.9532695 </threshold>
			<split pos="left">
				<feature> 39 </feature>
				<threshold> 5.373491 </threshold>
				<split pos="left">
					<feature> 19 </feature>
					<threshold> 7.0229344 </threshold>
					<split pos="left">
						<feature> 16 </feature>
						<threshold> 0.0 </threshold>
						<split pos="left">
							<feature> 32 </feature>
							<threshold> 35.132977 </threshold>
							<split pos="left">
								<feature> 30 </feature>
								<threshold> 11.478018 </threshold>
								<split pos="left">
									<feature> 6 </feature>
									<threshold> 0.88968766 </threshold>
									<split pos="left">
										<feature> 37 </feature>
										<threshold> 0.0 </threshold>
										<split pos="left">
											<feature> 2 </feature>
											<threshold> 8.202922 </threshold>
											<split pos="left">
												<output> 0.016154995188117027 </output>
											</split>
											<split pos="right">
												<output> 0.21840247511863708 </output>
											</split>
										</split>
										<split pos="right">
											<output> 0.16908279061317444 </output>
										</split>
									</split>
									<split pos="right">
										<output> -0.020006434991955757 </output>
									</split>
								</split>
								<split pos="right">
									<output> 0.23375621438026428 </output>
								</split>
							</split>
							<split pos="right">
								<output> 0.45590025186538696 </output>
							</split>
						</split>
						<split pos="right">
							<output> 0.28882867097854614 </output>
						</split>
					</split>
					<split pos="right">
						<output> -0.3297230303287506 </output>
					</split>
				</split>
				<split pos="right">
					<output> 0.24032138288021088 </output>
				</split>
			</split>
			<split pos="right">
				<output> 0.12792867422103882 </output>
			</split>
		</split>
	</tree>
	<tree id="28" weight="0.1">
		<split>
			<feature> 10 </feature>
			<threshold> 1.5808597 </threshold>
			<split pos="left">
				<feature> 11 </feature>
				<threshold> 1.8329661 </threshold>
				<split pos="left">
					<feature> 26 </feature>
					<threshold> 2.7316415 </threshold>
					<split pos="left">
						<output> 0.012408453039824963 </output>
					</split>
					<split pos="right">
						<output> -0.0806291326880455 </output>
					</split>
				</split>
				<split pos="right">
					<output> 0.07152731716632843 </output>
				</split>
			</split>
			<split pos="right">
				<feature> 25 </feature>
				<threshold> 4.183991 </threshold>
				<split pos="left">
					<feature> 7 </feature>
					<threshold> 9.805634 </threshold>
					<split pos="left">
						<feature> 37 </feature>
						<threshold> 1.8948972 </threshold>
						<split pos="left">
							<feature> 25 </feature>
							<threshold> 0.77073514 </threshold>
							<split pos="left">
								<feature> 29 </feature>
								<threshold> 12.456427 </threshold>
								<split pos="left">
									<feature> 2 </feature>
									<threshold> 2.5317645 </threshold>
									<split pos="left">
										<output> 0.012721425853669643 </output>
									</split>
									<split pos="right">
										<output> 0.12069358676671982 </output>
									</split>
								</split>
								<split pos="right">
									<output> 0.33470532298088074 </output>
								</split>
							</split>
							<split pos="right">
								<output> -0.040014103055000305 </output>
							</split>
						</split>
						<split pos="right">
							<output> 0.1533810794353485 </output>
						</split>
					</split>
					<split pos="right">
						<output> 0.29602280259132385 </output>
					</split>
				</split>
				<split pos="right">
					<output> 0.2818783223628998 </output>
				</split>
			</split>
		</split>
	</tree>
	<tree id="29" weight="0.1">
		<split>
			<feature> 4 </feature>
			<threshold> 2.8350263 </threshold>
			<split pos="left">
				<feature> 7 </feature>
				<threshold> 10.365955 </threshold>
				<split pos="left">
					<feature> 13 </feature>
					<threshold> 3.3741822 </threshold>
					<split pos="left">
						<feature> 9 </feature>
						<threshold> 0.7203268 </threshold>
						<split pos="left">
							<feature> 28 </feature>
							<threshold> 4.686385 </threshold>
							<split pos="left">
								<feature> 31 </feature>
								<threshold> 6.415864 </threshold>
								<split pos="left">
									<feature> 17 </feature>
									<threshold> 1.4367354 </threshold>
									<split pos="left">
										<feature> 30 </feature>
										<threshold> 2.248274 </threshold>
										<split pos="left">
											<output> 4.085238615516573E-4 </output>
										</split>
										<split pos="right">
											<output> 0.06903962045907974 </output>
										</split>
									</split>
									<split pos="right">
										<output> 0.2187260091304779 </output>
									</split>
								</split>
								<split pos="right">
									<output> 0.1682060956954956 </output>
								</split>
							</split>
							<split pos="right">
								<output> 0.20553965866565704 </output>
							</split>
						</split>
						<split pos="right">
							<output> -0.01917591132223606 </output>
						</split>
					</split>
					<split pos="right">
						<output> -0.20370608568191528 </output>
					</split>
				</split>
				<split pos="right">
					<output> 0.24020850658416748 </output>
				</split>
			</split>
			<split pos="right">
				<feature> 16 </feature>
				<threshold> 0.0 </threshold>
				<split pos="left">
					<output> 0.049658916890621185 </output>
				</split>
				<split pos="right">
					<output> 0.3148019015789032 </output>
				</split>
			</split>
		</split>
	</tree>
	<tree id="30" weight="0.1">
		<split>
			<feature> 29 </feature>
			<threshold> 11.636925 </threshold>
			<split pos="left">
				<feature> 13 </feature>
				<threshold> 8.435445 </threshold>
				<split pos="left">
					<feature> 16 </feature>
					<threshold> 0.0 </threshold>
					<split pos="left">
						<feature> 39 </feature>
						<threshold> 1.9978362 </threshold>
						<split pos="left">
							<feature> 9 </feature>
							<threshold> 0.92613447 </threshold>
							<split pos="left">
								<feature> 30 </feature>
								<threshold> 2.1299438 </threshold>
								<split pos="left">
									<feature> 28 </feature>
									<threshold> 12.443154 </threshold>
									<split pos="left">
										<feature> 7 </feature>
										<threshold> 21.432348 </threshold>
										<split pos="left">
											<feature> 1 </feature>
											<threshold> 10.546391 </threshold>
											<split pos="left">
												<output> 0.0023334592115134 </output>
											</split>
											<split pos="right">
												<output> 0.5558368563652039 </output>
											</split>
										</split>
										<split pos="right">
											<output> -0.359059602022171 </output>
										</split>
									</split>
									<split pos="right">
										<output> 0.6101915240287781 </output>
									</split>
								</split>
								<split pos="right">
									<output> 0.11698805540800095 </output>
								</split>
							</split>
							<split pos="right">
								<output> -0.0344560481607914 </output>
							</split>
						</split>
						<split pos="right">
							<output> 0.06763961911201477 </output>
						</split>
					</split>
					<split pos="right">
						<output> 0.22867220640182495 </output>
					</split>
				</split>
				<split pos="right">
					<output> -0.36653780937194824 </output>
				</split>
			</split>
			<split pos="right">
				<output> 0.10564282536506653 </output>
			</split>
		</split>
	</tree>
	<tree id="31" weight="0.1">
		<split>
			<feature> 10 </feature>
			<threshold> 1.5808597 </threshold>
			<split pos="left">
				<feature> 20 </feature>
				<threshold> 9.218616 </threshold>
				<split pos="left">
					<feature> 11 </feature>
					<threshold> 0.043642066 </threshold>
					<split pos="left">
						<output> -0.011015496216714382 </output>
					</split>
					<split pos="right">
						<output> 0.056819602847099304 </output>
					</split>
				</split>
				<split pos="right">
					<output> -0.26962053775787354 </output>
				</split>
			</split>
			<split pos="right">
				<feature> 25 </feature>
				<threshold> 4.954726 </threshold>
				<split pos="left">
					<feature> 5 </feature>
					<threshold> 9.05537 </threshold>
					<split pos="left">
						<feature> 9 </feature>
						<threshold> 7.8206916 </threshold>
						<split pos="left">
							<feature> 16 </feature>
							<threshold> 6.006038 </threshold>
							<split pos="left">
								<feature> 4 </feature>
								<threshold> 9.251138 </threshold>
								<split pos="left">
									<feature> 9 </feature>
									<threshold> 0.8232306 </threshold>
									<split pos="left">
										<output> 0.02738836780190468 </output>
									</split>
									<split pos="right">
										<output> -0.04249902814626694 </output>
									</split>
								</split>
								<split pos="right">
									<output> 0.31021878123283386 </output>
								</split>
							</split>
							<split pos="right">
								<output> 0.9718478322029114 </output>
							</split>
						</split>
						<split pos="right">
							<output> 0.2769724726676941 </output>
						</split>
					</split>
					<split pos="right">
						<output> 0.11677204072475433 </output>
					</split>
				</split>
				<split pos="right">
					<output> 0.27198338508605957 </output>
				</split>
			</split>
		</split>
	</tree>
	<tree id="32" weight="0.1">
		<split>
			<feature> 27 </feature>
			<threshold> 20.76272 </threshold>
			<split pos="left">
				<feature> 32 </feature>
				<threshold> 7.8783083 </threshold>
				<split pos="left">
					<feature> 16 </feature>
					<threshold> 0.0 </threshold>
					<split pos="left">
						<feature> 9 </feature>
						<threshold> 1.4406537 </threshold>
						<split pos="left">
							<feature> 29 </feature>
							<threshold> 11.309124 </threshold>
							<split pos="left">
								<feature> 30 </feature>
								<threshold> 2.0116136 </threshold>
								<split pos="left">
									<feature> 31 </feature>
									<threshold> 9.623792 </threshold>
									<split pos="left">
										<feature> 32 </feature>
										<threshold> 0.0 </threshold>
										<split pos="left">
											<output> 0.02614138461649418 </output>
										</split>
										<split pos="right">
											<output> -0.02405707724392414 </output>
										</split>
									</split>
									<split pos="right">
										<output> 0.3280065655708313 </output>
									</split>
								</split>
								<split pos="right">
									<output> 0.07188967615365982 </output>
								</split>
							</split>
							<split pos="right">
								<output> 0.22705614566802979 </output>
							</split>
						</split>
						<split pos="right">
							<output> -0.046927887946367264 </output>
						</split>
					</split>
					<split pos="right">
						<output> 0.2212267369031906 </output>
					</split>
				</split>
				<split pos="right">
					<feature> 39 </feature>
					<threshold> 1.9978362 </threshold>
					<split pos="left">
						<output> 0.0208418108522892 </output>
					</split>
					<split pos="right">
						<output> 0.10544811189174652 </output>
					</split>
				</split>
			</split>
			<split pos="right">
				<output> 0.7474588751792908 </output>
			</split>
		</split>
	</tree>
	<tree id="33" weight="0.1">
		<split>
			<feature> 27 </feature>
			<threshold> 17.073917 </threshold>
			<split pos="left">
				<feature> 8 </feature>
				<threshold> 32.616974 </threshold>
				<split pos="left">
					<feature> 10 </feature>
					<threshold> 0.0 </threshold>
					<split pos="left">
						<feature> 19 </feature>
						<threshold> 7.0229344 </threshold>
						<split pos="left">
							<feature> 26 </feature>
							<threshold> 11.423228 </threshold>
							<split pos="left">
								<feature> 39 </feature>
								<threshold> 2.6867445 </threshold>
								<split pos="left">
									<feature> 9 </feature>
									<threshold> 1.0290383 </threshold>
									<split pos="left">
										<output> 0.013621852733194828 </output>
									</split>
									<split pos="right">
										<output> -0.04571257904171944 </output>
									</split>
								</split>
								<split pos="right">
									<output> 0.0965951606631279 </output>
								</split>
							</split>
							<split pos="right">
								<output> -0.20676103234291077 </output>
							</split>
						</split>
						<split pos="right">
							<output> -0.2698502838611603 </output>
						</split>
					</split>
					<split pos="right">
						<feature> 1 </feature>
						<threshold> 3.5953584 </threshold>
						<split pos="left">
							<feature> 1 </feature>
							<threshold> 1.9175234 </threshold>
							<split pos="left">
								<output> 0.04301155358552933 </output>
							</split>
							<split pos="right">
								<output> -0.062170304358005524 </output>
							</split>
						</split>
						<split pos="right">
							<output> 0.1878032684326172 </output>
						</split>
					</split>
				</split>
				<split pos="right">
					<output> 0.28283625841140747 </output>
				</split>
			</split>
			<split pos="right">
				<output> 0.4888276159763336 </output>
			</split>
		</split>
	</tree>
	<tree id="34" weight="0.1">
		<split>
			<feature> 2 </feature>
			<threshold> 8.405463 </threshold>
			<split pos="left">
				<feature> 9 </feature>
				<threshold> 12.245537 </threshold>
				<split pos="left">
					<feature> 37 </feature>
					<threshold> 6.869003 </threshold>
					<split pos="left">
						<feature> 4 </feature>
						<threshold> 19.845182 </threshold>
						<split pos="left">
							<feature> 7 </feature>
							<threshold> 12.327082 </threshold>
							<split pos="left">
								<feature> 1 </feature>
								<threshold> 10.466494 </threshold>
								<split pos="left">
									<feature> 20 </feature>
									<threshold> 9.218616 </threshold>
									<split pos="left">
										<feature> 16 </feature>
										<threshold> 0.0 </threshold>
										<split pos="left">
											<feature> 6 </feature>
											<threshold> 1.6805211 </threshold>
											<split pos="left">
												<output> 0.01186907384544611 </output>
											</split>
											<split pos="right">
												<output> -0.03098447434604168 </output>
											</split>
										</split>
										<split pos="right">
											<output> 0.20555928349494934 </output>
										</split>
									</split>
									<split pos="right">
										<output> -0.21020764112472534 </output>
									</split>
								</split>
								<split pos="right">
									<output> 0.6271679401397705 </output>
								</split>
							</split>
							<split pos="right">
								<output> 0.11801760643720627 </output>
							</split>
						</split>
						<split pos="right">
							<output> -0.5341870188713074 </output>
						</split>
					</split>
					<split pos="right">
						<output> 0.2946593165397644 </output>
					</split>
				</split>
				<split pos="right">
					<output> 0.27467596530914307 </output>
				</split>
			</split>
			<split pos="right">
				<output> 0.10272892564535141 </output>
			</split>
		</split>
	</tree>
	<tree id="35" weight="0.1">
		<split>
			<feature> 29 </feature>
			<threshold> 12.620327 </threshold>
			<split pos="left">
				<feature> 13 </feature>
				<threshold> 8.435445 </threshold>
				<split pos="left">
					<feature> 16 </feature>
					<threshold> 0.0 </threshold>
					<split pos="left">
						<feature> 6 </feature>
						<threshold> 0.88968766 </threshold>
						<split pos="left">
							<feature> 37 </feature>
							<threshold> 0.0 </threshold>
							<split pos="left">
								<feature> 32 </feature>
								<threshold> 18.311726 </threshold>
								<split pos="left">
									<feature> 2 </feature>
									<threshold> 13.063914 </threshold>
									<split pos="left">
										<feature> 17 </feature>
										<threshold> 1.4367354 </threshold>
										<split pos="left">
											<feature> 7 </feature>
											<threshold> 8.5449095 </threshold>
											<split pos="left">
												<output> -0.0020047228317707777 </output>
											</split>
											<split pos="right">
												<output> 0.09868121147155762 </output>
											</split>
										</split>
										<split pos="right">
											<output> 0.1689206212759018 </output>
										</split>
									</split>
									<split pos="right">
										<output> 0.3000052273273468 </output>
									</split>
								</split>
								<split pos="right">
									<output> 0.3144562840461731 </output>
								</split>
							</split>
							<split pos="right">
								<output> 0.17314548790454865 </output>
							</split>
						</split>
						<split pos="right">
							<output> -0.024373408406972885 </output>
						</split>
					</split>
					<split pos="right">
						<output> 0.172577366232872 </output>
					</split>
				</split>
				<split pos="right">
					<output> -0.29670217633247375 </output>
				</split>
			</split>
			<split pos="right">
				<output> 0.08788414299488068 </output>
			</split>
		</split>
	</tree>
	<tree id="36" weight="0.1">
		<split>
			<feature> 10 </feature>
			<threshold> 1.9120867 </threshold>
			<split pos="left">
				<feature> 1 </feature>
				<threshold> 15.659794 </threshold>
				<split pos="left">
					<feature> 11 </feature>
					<threshold> 1.8329661 </threshold>
					<split pos="left">
						<output> -0.016189519315958023 </output>
					</split>
					<split pos="right">
						<output> 0.04335801303386688 </output>
					</split>
				</split>
				<split pos="right">
					<output> 1.168266773223877 </output>
				</split>
			</split>
			<split pos="right">
				<feature> 27 </feature>
				<threshold> 5.2697353 </threshold>
				<split pos="left">
					<feature> 20 </feature>
					<threshold> 7.9894633 </threshold>
					<split pos="left">
						<feature> 30 </feature>
						<threshold> 8.638098 </threshold>
						<split pos="left">
							<feature> 33 </feature>
							<threshold> 6.14914 </threshold>
							<split pos="left">
								<feature> 9 </feature>
								<threshold> 9.364243 </threshold>
								<split pos="left">
									<feature> 5 </feature>
									<threshold> 9.669292 </threshold>
									<split pos="left">
										<output> 0.012508883140981197 </output>
									</split>
									<split pos="right">
										<output> 0.11264646798372269 </output>
									</split>
								</split>
								<split pos="right">
									<output> 0.6391974091529846 </output>
								</split>
							</split>
							<split pos="right">
								<output> -0.09512271732091904 </output>
							</split>
						</split>
						<split pos="right">
							<output> 0.3038937747478485 </output>
						</split>
					</split>
					<split pos="right">
						<output> 0.5831319093704224 </output>
					</split>
				</split>
				<split pos="right">
					<output> 0.24747519195079803 </output>
				</split>
			</split>
		</split>
	</tree>
	<tree id="37" weight="0.1">
		<split>
			<feature> 27 </feature>
			<threshold> 20.76272 </threshold>
			<split pos="left">
				<feature> 32 </feature>
				<threshold> 18.950506 </threshold>
				<split pos="left">
					<feature> 10 </feature>
					<threshold> 1.5808597 </threshold>
					<split pos="left">
						<feature> 4 </feature>
						<threshold> 7.4605947 </threshold>
						<split pos="left">
							<feature> 11 </feature>
							<threshold> 1.8329661 </threshold>
							<split pos="left">
								<feature> 26 </feature>
								<threshold> 2.855807 </threshold>
								<split pos="left">
									<output> 0.008342642337083817 </output>
								</split>
								<split pos="right">
									<output> -0.08563872426748276 </output>
								</split>
							</split>
							<split pos="right">
								<output> 0.05452527105808258 </output>
							</split>
						</split>
						<split pos="right">
							<output> -0.10449530929327011 </output>
						</split>
					</split>
					<split pos="right">
						<feature> 26 </feature>
						<threshold> 7.325766 </threshold>
						<split pos="left">
							<feature> 9 </feature>
							<threshold> 6.791653 </threshold>
							<split pos="left">
								<feature> 33 </feature>
								<threshold> 1.2078668 </threshold>
								<split pos="left">
									<output> 0.033503785729408264 </output>
								</split>
								<split pos="right">
									<output> -0.023537345230579376 </output>
								</split>
							</split>
							<split pos="right">
								<output> 0.17080746591091156 </output>
							</split>
						</split>
						<split pos="right">
							<output> 0.2019522339105606 </output>
						</split>
					</split>
				</split>
				<split pos="right">
					<output> 0.11310090124607086 </output>
				</split>
			</split>
			<split pos="right">
				<output> 0.5830649733543396 </output>
			</split>
		</split>
	</tree>
	<tree id="38" weight="0.1">
		<split>
			<feature> 32 </feature>
			<threshold> 7.8783083 </threshold>
			<split pos="left">
				<feature> 9 </feature>
				<threshold> 1.4406537 </threshold>
				<split pos="left">
					<feature> 16 </feature>
					<threshold> 0.0 </threshold>
					<split pos="left">
						<feature> 31 </feature>
						<threshold> 9.484317 </threshold>
						<split pos="left">
							<feature> 28 </feature>
							<threshold> 11.150361 </threshold>
							<split pos="left">
								<feature> 30 </feature>
								<threshold> 2.0116136 </threshold>
								<split pos="left">
									<feature> 29 </feature>
									<threshold> 11.309124 </threshold>
									<split pos="left">
										<feature> 6 </feature>
										<threshold> 1.2851044 </threshold>
										<split pos="left">
											<output> -0.0031876114662736654 </output>
										</split>
										<split pos="right">
											<output> -0.1216832771897316 </output>
										</split>
									</split>
									<split pos="right">
										<output> 0.29961299896240234 </output>
									</split>
								</split>
								<split pos="right">
									<output> 0.050798822194337845 </output>
								</split>
							</split>
							<split pos="right">
								<output> 0.33941441774368286 </output>
							</split>
						</split>
						<split pos="right">
							<output> 0.27950072288513184 </output>
						</split>
					</split>
					<split pos="right">
						<output> 0.3671835660934448 </output>
					</split>
				</split>
				<split pos="right">
					<output> -0.03810940682888031 </output>
				</split>
			</split>
			<split pos="right">
				<feature> 39 </feature>
				<threshold> 1.8600544 </threshold>
				<split pos="left">
					<output> 0.010369956493377686 </output>
				</split>
				<split pos="right">
					<output> 0.07917335629463196 </output>
				</split>
			</split>
		</split>
	</tree>
	<tree id="39" weight="0.1">
		<split>
			<feature> 13 </feature>
			<threshold> 7.4906735 </threshold>
			<split pos="left">
				<feature> 16 </feature>
				<threshold> 0.0 </threshold>
				<split pos="left">
					<feature> 8 </feature>
					<threshold> 32.616974 </threshold>
					<split pos="left">
						<feature> 27 </feature>
						<threshold> 20.76272 </threshold>
						<split pos="left">
							<feature> 6 </feature>
							<threshold> 0.88968766 </threshold>
							<split pos="left">
								<feature> 37 </feature>
								<threshold> 0.0 </threshold>
								<split pos="left">
									<feature> 3 </feature>
									<threshold> 0.0 </threshold>
									<split pos="left">
										<feature> 33 </feature>
										<threshold> 1.0980607 </threshold>
										<split pos="left">
											<feature> 29 </feature>
											<threshold> 9.3423195 </threshold>
											<split pos="left">
												<output> 0.005143089685589075 </output>
											</split>
											<split pos="right">
												<output> 0.18762174248695374 </output>
											</split>
										</split>
										<split pos="right">
											<output> -0.04794197157025337 </output>
										</split>
									</split>
									<split pos="right">
										<output> 0.04768203943967819 </output>
									</split>
								</split>
								<split pos="right">
									<output> 0.16283144056797028 </output>
								</split>
							</split>
							<split pos="right">
								<output> -0.020287077873945236 </output>
							</split>
						</split>
						<split pos="right">
							<output> 0.5193082094192505 </output>
						</split>
					</split>
					<split pos="right">
						<output> 0.22618749737739563 </output>
					</split>
				</split>
				<split pos="right">
					<output> 0.17659632861614227 </output>
				</split>
			</split>
			<split pos="right">
				<output> -0.21975067257881165 </output>
			</split>
		</split>
	</tree>
	<tree id="40" weight="0.1">
		<split>
			<feature> 1 </feature>
			<threshold> 15.899485 </threshold>
			<split pos="left">
				<feature> 17 </feature>
				<threshold> 9.394041 </threshold>
				<split pos="left">
					<feature> 16 </feature>
					<threshold> 0.0 </threshold>
					<split pos="left">
						<feature> 32 </feature>
						<threshold> 18.950506 </threshold>
						<split pos="left">
							<feature> 27 </feature>
							<threshold> 14.333663 </threshold>
							<split pos="left">
								<feature> 6 </feature>
								<threshold> 1.6805211 </threshold>
								<split pos="left">
									<feature> 38 </feature>
									<threshold> 1.658035 </threshold>
									<split pos="left">
										<feature> 29 </feature>
										<threshold> 11.636925 </threshold>
										<split pos="left">
											<feature> 26 </feature>
											<threshold> 8.31909 </threshold>
											<split pos="left">
												<output> 0.0013739265268668532 </output>
											</split>
											<split pos="right">
												<output> -0.1991320103406906 </output>
											</split>
										</split>
										<split pos="right">
											<output> 0.14016056060791016 </output>
										</split>
									</split>
									<split pos="right">
										<output> 0.12332899123430252 </output>
									</split>
								</split>
								<split pos="right">
									<output> -0.027873488143086433 </output>
								</split>
							</split>
							<split pos="right">
								<output> 0.23666197061538696 </output>
							</split>
						</split>
						<split pos="right">
							<output> 0.10118091106414795 </output>
						</split>
					</split>
					<split pos="right">
						<output> 0.16146932542324066 </output>
					</split>
				</split>
				<split pos="right">
					<output> -0.19378182291984558 </output>
				</split>
			</split>
			<split pos="right">
				<output> 0.9028527140617371 </output>
			</split>
		</split>
	</tree>
	<tree id="41" weight="0.1">
		<split>
			<feature> 9 </feature>
			<threshold> 11.936827 </threshold>
			<split pos="left">
				<feature> 4 </feature>
				<threshold> 16.711733 </threshold>
				<split pos="left">
					<feature> 7 </feature>
					<threshold> 11.206438 </threshold>
					<split pos="left">
						<feature> 1 </feature>
						<threshold> 10.466494 </threshold>
						<split pos="left">
							<feature> 33 </feature>
							<threshold> 12.408086 </threshold>
							<split pos="left">
								<feature> 26 </feature>
								<threshold> 6.7049384 </threshold>
								<split pos="left">
									<feature> 20 </feature>
									<threshold> 7.2519746 </threshold>
									<split pos="left">
										<feature> 17 </feature>
										<threshold> 1.4367354 </threshold>
										<split pos="left">
											<feature> 3 </feature>
											<threshold> 7.57071 </threshold>
											<split pos="left">
												<output> -0.0017991585191339254 </output>
											</split>
											<split pos="right">
												<output> 0.2795504629611969 </output>
											</split>
										</split>
										<split pos="right">
											<output> 0.10906969010829926 </output>
										</split>
									</split>
									<split pos="right">
										<output> -0.17186596989631653 </output>
									</split>
								</split>
								<split pos="right">
									<output> 0.05455396696925163 </output>
								</split>
							</split>
							<split pos="right">
								<output> -0.16625919938087463 </output>
							</split>
						</split>
						<split pos="right">
							<output> 0.2768796980381012 </output>
						</split>
					</split>
					<split pos="right">
						<output> 0.09641318768262863 </output>
					</split>
				</split>
				<split pos="right">
					<output> -0.24536967277526855 </output>
				</split>
			</split>
			<split pos="right">
				<output> 0.16845880448818207 </output>
			</split>
		</split>
	</tree>
	<tree id="42" weight="0.1">
		<split>
			<feature> 13 </feature>
			<threshold> 7.4906735 </threshold>
			<split pos="left">
				<feature> 16 </feature>
				<threshold> 0.0 </threshold>
				<split pos="left">
					<feature> 32 </feature>
					<threshold> 7.8783083 </threshold>
					<split pos="left">
						<feature> 6 </feature>
						<threshold> 1.6805211 </threshold>
						<split pos="left">
							<feature> 30 </feature>
							<threshold> 1.6566229 </threshold>
							<split pos="left">
								<feature> 29 </feature>
								<threshold> 11.145224 </threshold>
								<split pos="left">
									<feature> 32 </feature>
									<threshold> 0.0 </threshold>
									<split pos="left">
										<output> 0.023888427764177322 </output>
									</split>
									<split pos="right">
										<output> -0.03440427407622337 </output>
									</split>
								</split>
								<split pos="right">
									<output> 0.3130732774734497 </output>
								</split>
							</split>
							<split pos="right">
								<output> 0.0790972113609314 </output>
							</split>
						</split>
						<split pos="right">
							<output> -0.04762066528201103 </output>
						</split>
					</split>
					<split pos="right">
						<feature> 39 </feature>
						<threshold> 1.8600544 </threshold>
						<split pos="left">
							<feature> 33 </feature>
							<threshold> 0.0 </threshold>
							<split pos="left">
								<output> 0.07345027476549149 </output>
							</split>
							<split pos="right">
								<output> -0.027448289096355438 </output>
							</split>
						</split>
						<split pos="right">
							<output> 0.07070592790842056 </output>
						</split>
					</split>
				</split>
				<split pos="right">
					<output> 0.14251074194908142 </output>
				</split>
			</split>
			<split pos="right">
				<output> -0.18899475038051605 </output>
			</split>
		</split>
	</tree>
	<tree id="43" weight="0.1">
		<split>
			<feature> 1 </feature>
			<threshold> 15.899485 </threshold>
			<split pos="left">
				<feature> 7 </feature>
				<threshold> 12.327082 </threshold>
				<split pos="left">
					<feature> 4 </feature>
					<threshold> 11.489316 </threshold>
					<split pos="left">
						<feature> 29 </feature>
						<threshold> 12.456427 </threshold>
						<split pos="left">
							<feature> 20 </feature>
							<threshold> 7.3748894 </threshold>
							<split pos="left">
								<feature> 17 </feature>
								<threshold> 1.4367354 </threshold>
								<split pos="left">
									<feature> 1 </feature>
									<threshold> 10.466494 </threshold>
									<split pos="left">
										<feature> 26 </feature>
										<threshold> 11.174897 </threshold>
										<split pos="left">
											<feature> 32 </feature>
											<threshold> 18.311726 </threshold>
											<split pos="left">
												<output> -0.002297771628946066 </output>
											</split>
											<split pos="right">
												<output> 0.15583406388759613 </output>
											</split>
										</split>
										<split pos="right">
											<output> -0.2719205319881439 </output>
										</split>
									</split>
									<split pos="right">
										<output> 0.34133556485176086 </output>
									</split>
								</split>
								<split pos="right">
									<output> 0.10565810650587082 </output>
								</split>
							</split>
							<split pos="right">
								<output> -0.1342109590768814 </output>
							</split>
						</split>
						<split pos="right">
							<output> 0.0889943391084671 </output>
						</split>
					</split>
					<split pos="right">
						<output> -0.1428062468767166 </output>
					</split>
				</split>
				<split pos="right">
					<output> 0.08087324351072311 </output>
				</split>
			</split>
			<split pos="right">
				<output> 0.7880918979644775 </output>
			</split>
		</split>
	</tree>
	<tree id="44" weight="0.1">
		<split>
			<feature> 27 </feature>
			<threshold> 20.76272 </threshold>
			<split pos="left">
				<feature> 32 </feature>
				<threshold> 34.920048 </threshold>
				<split pos="left">
					<feature> 7 </feature>
					<threshold> 23.53357 </threshold>
					<split pos="left">
						<feature> 1 </feature>
						<threshold> 10.226803 </threshold>
						<split pos="left">
							<feature> 4 </feature>
							<threshold> 16.711733 </threshold>
							<split pos="left">
								<feature> 7 </feature>
								<threshold> 12.327082 </threshold>
								<split pos="left">
									<feature> 9 </feature>
									<threshold> 0.92613447 </threshold>
									<split pos="left">
										<feature> 26 </feature>
										<threshold> 7.4499316 </threshold>
										<split pos="left">
											<feature> 25 </feature>
											<threshold> 1.8717855 </threshold>
											<split pos="left">
												<output> -0.006565912626683712 </output>
											</split>
											<split pos="right">
												<output> 0.04179816320538521 </output>
											</split>
										</split>
										<split pos="right">
											<output> 0.1610339730978012 </output>
										</split>
									</split>
									<split pos="right">
										<output> -0.016540266573429108 </output>
									</split>
								</split>
								<split pos="right">
									<output> 0.11367827653884888 </output>
								</split>
							</split>
							<split pos="right">
								<output> -0.21369346976280212 </output>
							</split>
						</split>
						<split pos="right">
							<output> 0.2161978930234909 </output>
						</split>
					</split>
					<split pos="right">
						<output> -0.2646675407886505 </output>
					</split>
				</split>
				<split pos="right">
					<output> 0.26015451550483704 </output>
				</split>
			</split>
			<split pos="right">
				<output> 0.43411770462989807 </output>
			</split>
		</split>
	</tree>
	<tree id="45" weight="0.1">
		<split>
			<feature> 10 </feature>
			<threshold> 1.9120867 </threshold>
			<split pos="left">
				<feature> 25 </feature>
				<threshold> 3.1930459 </threshold>
				<split pos="left">
					<feature> 1 </feature>
					<threshold> 1.8376266 </threshold>
					<split pos="left">
						<output> -0.018202409148216248 </output>
					</split>
					<split pos="right">
						<output> 0.04985640197992325 </output>
					</split>
				</split>
				<split pos="right">
					<output> -0.07112954556941986 </output>
				</split>
			</split>
			<split pos="right">
				<feature> 27 </feature>
				<threshold> 5.2697353 </threshold>
				<split pos="left">
					<feature> 20 </feature>
					<threshold> 7.9894633 </threshold>
					<split pos="left">
						<feature> 30 </feature>
						<threshold> 8.638098 </threshold>
						<split pos="left">
							<feature> 33 </feature>
							<threshold> 6.14914 </threshold>
							<split pos="left">
								<feature> 9 </feature>
								<threshold> 9.364243 </threshold>
								<split pos="left">
									<feature> 2 </feature>
									<threshold> 14.684245 </threshold>
									<split pos="left">
										<output> 0.012313942424952984 </output>
									</split>
									<split pos="right">
										<output> 0.5273997783660889 </output>
									</split>
								</split>
								<split pos="right">
									<output> 0.546180248260498 </output>
								</split>
							</split>
							<split pos="right">
								<output> -0.09635936468839645 </output>
							</split>
						</split>
						<split pos="right">
							<output> 0.25598523020744324 </output>
						</split>
					</split>
					<split pos="right">
						<output> 0.47324422001838684 </output>
					</split>
				</split>
				<split pos="right">
					<output> 0.1845768839120865 </output>
				</split>
			</split>
		</split>
	</tree>
	<tree id="46" weight="0.1">
		<split>
			<feature> 39 </feature>
			<threshold> 5.373491 </threshold>
			<split pos="left">
				<feature> 15 </feature>
				<threshold> 4.970699 </threshold>
				<split pos="left">
					<feature> 16 </feature>
					<threshold> 0.0 </threshold>
					<split pos="left">
						<feature> 32 </feature>
						<threshold> 34.920048 </threshold>
						<split pos="left">
							<feature> 4 </feature>
							<threshold> 10.743257 </threshold>
							<split pos="left">
								<feature> 1 </feature>
								<threshold> 10.546391 </threshold>
								<split pos="left">
									<feature> 28 </feature>
									<threshold> 12.443154 </threshold>
									<split pos="left">
										<feature> 2 </feature>
										<threshold> 8.405463 </threshold>
										<split pos="left">
											<feature> 37 </feature>
											<threshold> 4.38195 </threshold>
											<split pos="left">
												<output> 7.975988410180435E-5 </output>
											</split>
											<split pos="right">
												<output> -0.179820254445076 </output>
											</split>
										</split>
										<split pos="right">
											<output> 0.07240403443574905 </output>
										</split>
									</split>
									<split pos="right">
										<output> 0.22213727235794067 </output>
									</split>
								</split>
								<split pos="right">
									<output> 0.3070123493671417 </output>
								</split>
							</split>
							<split pos="right">
								<output> -0.0907335951924324 </output>
							</split>
						</split>
						<split pos="right">
							<output> 0.28828945755958557 </output>
						</split>
					</split>
					<split pos="right">
						<output> 0.21781203150749207 </output>
					</split>
				</split>
				<split pos="right">
					<output> -0.14301782846450806 </output>
				</split>
			</split>
			<split pos="right">
				<output> 0.09259355813264847 </output>
			</split>
		</split>
	</tree>
	<tree id="47" weight="0.1">
		<split>
			<feature> 32 </feature>
			<threshold> 3.8326888 </threshold>
			<split pos="left">
				<feature> 5 </feature>
				<threshold> 6.4461966 </threshold>
				<split pos="left">
					<feature> 32 </feature>
					<threshold> 0.0 </threshold>
					<split pos="left">
						<output> 0.027828911319375038 </output>
					</split>
					<split pos="right">
						<output> -0.033441007137298584 </output>
					</split>
				</split>
				<split pos="right">
					<output> -0.10461340844631195 </output>
				</split>
			</split>
			<split pos="right">
				<feature> 28 </feature>
				<threshold> 1.292796 </threshold>
				<split pos="left">
					<feature> 5 </feature>
					<threshold> 11.9715 </threshold>
					<split pos="left">
						<feature> 25 </feature>
						<threshold> 1.9818906 </threshold>
						<split pos="left">
							<output> 0.025627722963690758 </output>
						</split>
						<split pos="right">
							<output> 0.13524045050144196 </output>
						</split>
					</split>
					<split pos="right">
						<output> -0.10675404965877533 </output>
					</split>
				</split>
				<split pos="right">
					<feature> 5 </feature>
					<threshold> 8.594929 </threshold>
					<split pos="left">
						<feature> 27 </feature>
						<threshold> 7.6938167 </threshold>
						<split pos="left">
							<feature> 1 </feature>
							<threshold> 10.706184 </threshold>
							<split pos="left">
								<output> -0.03110298328101635 </output>
							</split>
							<split pos="right">
								<output> 0.6076658368110657 </output>
							</split>
						</split>
						<split pos="right">
							<output> -0.5732643008232117 </output>
						</split>
					</split>
					<split pos="right">
						<output> 0.05180729180574417 </output>
					</split>
				</split>
			</split>
		</split>
	</tree>
	<tree id="48" weight="0.1">
		<split>
			<feature> 10 </feature>
			<threshold> 1.9120867 </threshold>
			<split pos="left">
				<feature> 26 </feature>
				<threshold> 11.299063 </threshold>
				<split pos="left">
					<feature> 5 </feature>
					<threshold> 17.189838 </threshold>
					<split pos="left">
						<feature> 4 </feature>
						<threshold> 7.4605947 </threshold>
						<split pos="left">
							<feature> 1 </feature>
							<threshold> 1.8376266 </threshold>
							<split pos="left">
								<output> -0.016358010470867157 </output>
							</split>
							<split pos="right">
								<output> 0.028403103351593018 </output>
							</split>
						</split>
						<split pos="right">
							<output> -0.10167869925498962 </output>
						</split>
					</split>
					<split pos="right">
						<output> 0.1234540045261383 </output>
					</split>
				</split>
				<split pos="right">
					<output> -0.16672992706298828 </output>
				</split>
			</split>
			<split pos="right">
				<feature> 27 </feature>
				<threshold> 5.480525 </threshold>
				<split pos="left">
					<feature> 28 </feature>
					<threshold> 10.827163 </threshold>
					<split pos="left">
						<feature> 4 </feature>
						<threshold> 3.4318738 </threshold>
						<split pos="left">
							<feature> 1 </feature>
							<threshold> 2.4768014 </threshold>
							<split pos="left">
								<output> 0.013151384890079498 </output>
							</split>
							<split pos="right">
								<output> -0.1057933121919632 </output>
							</split>
						</split>
						<split pos="right">
							<output> 0.08525342494249344 </output>
						</split>
					</split>
					<split pos="right">
						<output> -0.28479889035224915 </output>
					</split>
				</split>
				<split pos="right">
					<output> 0.17138125002384186 </output>
				</split>
			</split>
		</split>
	</tree>
	<tree id="49" weight="0.1">
		<split>
			<feature> 27 </feature>
			<threshold> 14.333663 </threshold>
			<split pos="left">
				<feature> 20 </feature>
				<threshold> 3.0728714 </threshold>
				<split pos="left">
					<feature> 17 </feature>
					<threshold> 1.4367354 </threshold>
					<split pos="left">
						<feature> 39 </feature>
						<threshold> 4.6156893 </threshold>
						<split pos="left">
							<feature> 15 </feature>
							<threshold> 2.4493296 </threshold>
							<split pos="left">
								<feature> 6 </feature>
								<threshold> 1.6805211 </threshold>
								<split pos="left">
									<feature> 37 </feature>
									<threshold> 1.658035 </threshold>
									<split pos="left">
										<feature> 2 </feature>
										<threshold> 13.266456 </threshold>
										<split pos="left">
											<feature> 8 </feature>
											<threshold> 23.120909 </threshold>
											<split pos="left">
												<output> 0.0025210287421941757 </output>
											</split>
											<split pos="right">
												<output> -0.1672503799200058 </output>
											</split>
										</split>
										<split pos="right">
											<output> 0.3128849267959595 </output>
										</split>
									</split>
									<split pos="right">
										<output> 0.16066411137580872 </output>
									</split>
								</split>
								<split pos="right">
									<output> -0.028021348640322685 </output>
								</split>
							</split>
							<split pos="right">
								<output> -0.2258036732673645 </output>
							</split>
						</split>
						<split pos="right">
							<output> 0.08390161395072937 </output>
						</split>
					</split>
					<split pos="right">
						<output> 0.20746682584285736 </output>
					</split>
				</split>
				<split pos="right">
					<output> -0.055776357650756836 </output>
				</split>
			</split>
			<split pos="right">
				<output> 0.19018353521823883 </output>
			</split>
		</split>
	</tree>
	<tree id="50" weight="0.1">
		<split>
			<feature> 26 </feature>
			<threshold> 1.6141518 </threshold>
			<split pos="left">
				<feature> 5 </feature>
				<threshold> 13.659786 </threshold>
				<split pos="left">
					<feature> 17 </feature>
					<threshold> 0.22103626 </threshold>
					<split pos="left">
						<feature> 7 </feature>
						<threshold> 23.113325 </threshold>
						<split pos="left">
							<feature> 25 </feature>
							<threshold> 1.8717855 </threshold>
							<split pos="left">
								<feature> 3 </feature>
								<threshold> 1.5239722 </threshold>
								<split pos="left">
									<feature> 10 </feature>
									<threshold> 1.9421983 </threshold>
									<split pos="left">
										<output> -0.03182177245616913 </output>
									</split>
									<split pos="right">
										<output> 0.01859281398355961 </output>
									</split>
								</split>
								<split pos="right">
									<output> 0.06471533328294754 </output>
								</split>
							</split>
							<split pos="right">
								<output> 0.061525654047727585 </output>
							</split>
						</split>
						<split pos="right">
							<output> -0.5704053640365601 </output>
						</split>
					</split>
					<split pos="right">
						<output> 0.33404725790023804 </output>
					</split>
				</split>
				<split pos="right">
					<output> 0.2210753858089447 </output>
				</split>
			</split>
			<split pos="right">
				<feature> 32 </feature>
				<threshold> 3.1939075 </threshold>
				<split pos="left">
					<output> -0.05578405410051346 </output>
				</split>
				<split pos="right">
					<feature> 9 </feature>
					<threshold> 0.7203268 </threshold>
					<split pos="left">
						<output> 0.03486565873026848 </output>
					</split>
					<split pos="right">
						<output> -0.019803235307335854 </output>
					</split>
				</split>
			</split>
		</split>
	</tree>
	<tree id="51" weight="0.1">
		<split>
			<feature> 1 </feature>
			<threshold> 15.899485 </threshold>
			<split pos="left">
				<feature> 9 </feature>
				<threshold> 5.453903 </threshold>
				<split pos="left">
					<feature> 4 </feature>
					<threshold> 10.743257 </threshold>
					<split pos="left">
						<feature> 1 </feature>
						<threshold> 10.546391 </threshold>
						<split pos="left">
							<feature> 26 </feature>
							<threshold> 6.9532695 </threshold>
							<split pos="left">
								<feature> 37 </feature>
								<threshold> 3.0199926 </threshold>
								<split pos="left">
									<feature> 30 </feature>
									<threshold> 11.241358 </threshold>
									<split pos="left">
										<feature> 20 </feature>
										<threshold> 3.0728714 </threshold>
										<split pos="left">
											<feature> 17 </feature>
											<threshold> 1.4367354 </threshold>
											<split pos="left">
												<output> -0.0014528428437188268 </output>
											</split>
											<split pos="right">
												<output> 0.15822117030620575 </output>
											</split>
										</split>
										<split pos="right">
											<output> -0.10851436108350754 </output>
										</split>
									</split>
									<split pos="right">
										<output> 0.27350351214408875 </output>
									</split>
								</split>
								<split pos="right">
									<output> -0.0961444079875946 </output>
								</split>
							</split>
							<split pos="right">
								<output> 0.05566178634762764 </output>
							</split>
						</split>
						<split pos="right">
							<output> 0.3010557293891907 </output>
						</split>
					</split>
					<split pos="right">
						<output> -0.13001245260238647 </output>
					</split>
				</split>
				<split pos="right">
					<output> 0.03709572181105614 </output>
				</split>
			</split>
			<split pos="right">
				<output> 0.6501242518424988 </output>
			</split>
		</split>
	</tree>
	<tree id="52" weight="0.1">
		<split>
			<feature> 29 </feature>
			<threshold> 35.074642 </threshold>
			<split pos="left">
				<feature> 5 </feature>
				<threshold> 28.086956 </threshold>
				<split pos="left">
					<feature> 31 </feature>
					<threshold> 3.9053078 </threshold>
					<split pos="left">
						<feature> 9 </feature>
						<threshold> 14.4065075 </threshold>
						<split pos="left">
							<feature> 26 </feature>
							<threshold> 0.0 </threshold>
							<split pos="left">
								<feature> 25 </feature>
								<threshold> 2.0919955 </threshold>
								<split pos="left">
									<output> 0.0063216788694262505 </output>
								</split>
								<split pos="right">
									<output> 0.08855078369379044 </output>
								</split>
							</split>
							<split pos="right">
								<feature> 28 </feature>
								<threshold> 1.1311965 </threshold>
								<split pos="left">
									<feature> 5 </feature>
									<threshold> 11.511059 </threshold>
									<split pos="left">
										<output> 0.017064319923520088 </output>
									</split>
									<split pos="right">
										<output> -0.15146778523921967 </output>
									</split>
								</split>
								<split pos="right">
									<output> -0.046143319457769394 </output>
								</split>
							</split>
						</split>
						<split pos="right">
							<output> 0.4758132994174957 </output>
						</split>
					</split>
					<split pos="right">
						<feature> 37 </feature>
						<threshold> 1.2435262 </threshold>
						<split pos="left">
							<output> 0.0027897560503333807 </output>
						</split>
						<split pos="right">
							<output> 0.10913409292697906 </output>
						</split>
					</split>
				</split>
				<split pos="right">
					<output> -0.2877184748649597 </output>
				</split>
			</split>
			<split pos="right">
				<output> 0.36028948426246643 </output>
			</split>
		</split>
	</tree>
	<tree id="53" weight="0.1">
		<split>
			<feature> 13 </feature>
			<threshold> 7.4906735 </threshold>
			<split pos="left">
				<feature> 16 </feature>
				<threshold> 0.0 </threshold>
				<split pos="left">
					<feature> 13 </feature>
					<threshold> 2.9692802 </threshold>
					<split pos="left">
						<feature> 13 </feature>
						<threshold> 0.0 </threshold>
						<split pos="left">
							<feature> 32 </feature>
							<threshold> 7.8783083 </threshold>
							<split pos="left">
								<feature> 5 </feature>
								<threshold> 6.4461966 </threshold>
								<split pos="left">
									<feature> 7 </feature>
									<threshold> 21.012104 </threshold>
									<split pos="left">
										<feature> 29 </feature>
										<threshold> 6.5560136 </threshold>
										<split pos="left">
											<feature> 28 </feature>
											<threshold> 9.37277 </threshold>
											<split pos="left">
												<output> -0.0032190580386668444 </output>
											</split>
											<split pos="right">
												<output> 0.225696861743927 </output>
											</split>
										</split>
										<split pos="right">
											<output> 0.08991730213165283 </output>
										</split>
									</split>
									<split pos="right">
										<output> -0.493248850107193 </output>
									</split>
								</split>
