## MART
## No. of trees = 1000
## No. of leaves = 10
## No. of threshold candidates = 256
## Learning rate = 0.1
## Stop early = 100

<ensemble>
	<tree id="1" weight="0.1">
		<split>
			<feature> 7 </feature>
			<threshold> 3.4003313 </threshold>
			<split pos="left">
				<feature> 77 </feature>
				<threshold> 5.7425303 </threshold>
				<split pos="left">
					<feature> 13 </feature>
					<threshold> 0.0 </threshold>
					<split pos="left">
						<feature> 98 </feature>
						<threshold> 1.9249735 </threshold>
						<split pos="left">
							<output> 0.1527819186449051 </output>
						</split>
						<split pos="right">
							<output> 0.3333333432674408 </output>
						</split>
					</split>
					<split pos="right">
						<feature> 97 </feature>
						<threshold> 4.4574556 </threshold>
						<split pos="left">
							<feature> 13 </feature>
							<threshold> 7.568558 </threshold>
							<split pos="left">
								<output> 0.3411707580089569 </output>
							</split>
							<split pos="right">
								<output> 0.5465346574783325 </output>
							</split>
						</split>
						<split pos="right">
							<output> 0.6518248319625854 </output>
						</split>
					</split>
				</split>
				<split pos="right">
					<feature> 20 </feature>
					<threshold> 0.63162196 </threshold>
					<split pos="left">
						<output> 0.4036502540111542 </output>
					</split>
					<split pos="right">
						<feature> 97 </feature>
						<threshold> 2.8973465 </threshold>
						<split pos="left">
							<output> 0.5867963433265686 </output>
						</split>
						<split pos="right">
							<output> 0.9899425506591797 </output>
						</split>
					</split>
				</split>
			</split>
			<split pos="right">
				<feature> 19 </feature>
				<threshold> 1.1657274 </threshold>
				<split pos="left">
					<output> 0.7493734359741211 </output>
				</split>
				<split pos="right">
					<output> 1.2414841651916504 </output>
				</split>
			</split>
		</split>
	</tree>
	<tree id="2" weight="0.1">
		<split>
			<feature> 8 </feature>
			<threshold> 7.63759 </threshold>
			<split pos="left">
				<feature> 97 </feature>
				<threshold> 3.7888374 </threshold>
				<split pos="left">
					<feature> 13 </feature>
					<threshold> 1.2040884 </threshold>
					<split pos="left">
						<feature> 52 </feature>
						<threshold> 3.340801 </threshold>
						<split pos="left">
							<output> 0.16134224832057953 </output>
						</split>
						<split pos="right">
							<output> 0.45073410868644714 </output>
						</split>
					</split>
					<split pos="right">
						<feature> 7 </feature>
						<threshold> 6.06146 </threshold>
						<split pos="left">
							<feature> 79 </feature>
							<threshold> 5.43156 </threshold>
							<split pos="left">
								<output> 0.3178141713142395 </output>
							</split>
							<split pos="right">
								<output> 0.4525671601295471 </output>
							</split>
						</split>
						<split pos="right">
							<output> 0.6659513115882874 </output>
						</split>
					</split>
				</split>
				<split pos="right">
					<feature> 9 </feature>
					<threshold> 3.9511924 </threshold>
					<split pos="left">
						<output> 0.44447407126426697 </output>
					</split>
					<split pos="right">
						<output> 0.8220953941345215 </output>
					</split>
				</split>
			</split>
			<split pos="right">
				<feature> 49 </feature>
				<threshold> 4.560487 </threshold>
				<split pos="left">
					<feature> 20 </feature>
					<threshold> 1.0105947 </threshold>
					<split pos="left">
						<output> 0.47756558656692505 </output>
					</split>
					<split pos="right">
						<output> 0.8182583451271057 </output>
					</split>
				</split>
				<split pos="right">
					<output> 1.1647813320159912 </output>
				</split>
			</split>
		</split>
	</tree>
	<tree id="3" weight="0.1">
		<split>
			<feature> 11 </feature>
			<threshold> 4.603434 </threshold>
			<split pos="left">
				<feature> 53 </feature>
				<threshold> 5.793637 </threshold>
				<split pos="left">
					<feature> 19 </feature>
					<threshold> 0.9069705 </threshold>
					<split pos="left">
						<output> 0.14245517551898956 </output>
					</split>
					<split pos="right">
						<feature> 73 </feature>
						<threshold> 3.274894 </threshold>
						<split pos="left">
							<feature> 13 </feature>
							<threshold> 6.3644686 </threshold>
							<split pos="left">
								<output> 0.27157479524612427 </output>
							</split>
							<split pos="right">
								<output> 0.5783097743988037 </output>
							</split>
						</split>
						<split pos="right">
							<output> 0.9894630312919617 </output>
						</split>
					</split>
				</split>
				<split pos="right">
					<feature> 20 </feature>
					<threshold> 1.0286411 </threshold>
					<split pos="left">
						<output> 0.26502037048339844 </output>
					</split>
					<split pos="right">
						<feature> 97 </feature>
						<threshold> 2.8973465 </threshold>
						<split pos="left">
							<output> 0.457304984331131 </output>
						</split>
						<split pos="right">
							<output> 0.796217679977417 </output>
						</split>
					</split>
				</split>
			</split>
			<split pos="right">
				<feature> 97 </feature>
				<threshold> 4.234583 </threshold>
				<split pos="left">
					<feature> 77 </feature>
					<threshold> 10.47167 </threshold>
					<split pos="left">
						<output> 0.4507456421852112 </output>
					</split>
					<split pos="right">
						<output> 0.7685990929603577 </output>
					</split>
				</split>
				<split pos="right">
					<output> 0.962622344493866 </output>
				</split>
			</split>
		</split>
	</tree>
	<tree id="4" weight="0.1">
		<split>
			<feature> 7 </feature>
			<threshold> 3.5481718 </threshold>
			<split pos="left">
				<feature> 77 </feature>
				<threshold> 5.5736322 </threshold>
				<split pos="left">
					<feature> 19 </feature>
					<threshold> 0.92990506 </threshold>
					<split pos="left">
						<feature> 13 </feature>
						<threshold> 4.300315 </threshold>
						<split pos="left">
							<output> 0.11697210371494293 </output>
						</split>
						<split pos="right">
							<output> 0.3488190174102783 </output>
						</split>
					</split>
					<split pos="right">
						<feature> 97 </feature>
						<threshold> 4.4574556 </threshold>
						<split pos="left">
							<feature> 7 </feature>
							<threshold> 0.0 </threshold>
							<split pos="left">
								<output> 0.35886290669441223 </output>
							</split>
							<split pos="right">
								<output> 0.2197476327419281 </output>
							</split>
						</split>
						<split pos="right">
							<output> 0.5557162761688232 </output>
						</split>
					</split>
				</split>
				<split pos="right">
					<feature> 20 </feature>
					<threshold> 0.63162196 </threshold>
					<split pos="left">
						<output> 0.2724980413913727 </output>
					</split>
					<split pos="right">
						<feature> 62 </feature>
						<threshold> 1.7729828 </threshold>
						<split pos="left">
							<output> 0.4632437527179718 </output>
						</split>
						<split pos="right">
							<output> 0.8650484681129456 </output>
						</split>
					</split>
				</split>
			</split>
			<split pos="right">
				<feature> 19 </feature>
				<threshold> 1.1657274 </threshold>
				<split pos="left">
					<output> 0.5507681369781494 </output>
				</split>
				<split pos="right">
					<output> 0.9625537991523743 </output>
				</split>
			</split>
		</split>
	</tree>
	<tree id="5" weight="0.1">
		<split>
			<feature> 52 </feature>
			<threshold> 4.4544015 </threshold>
			<split pos="left">
				<feature> 53 </feature>
				<threshold> 6.207468 </threshold>
				<split pos="left">
					<feature> 107 </feature>
					<threshold> 5.466053 </threshold>
					<split pos="left">
						<feature> 19 </feature>
						<threshold> 1.439523 </threshold>
						<split pos="left">
							<output> 0.07803601026535034 </output>
						</split>
						<split pos="right">
							<output> 0.21844100952148438 </output>
						</split>
					</split>
					<split pos="right">
						<output> 0.34284111857414246 </output>
					</split>
				</split>
				<split pos="right">
					<feature> 20 </feature>
					<threshold> 1.0105947 </threshold>
					<split pos="left">
						<output> 0.21547912061214447 </output>
					</split>
					<split pos="right">
						<feature> 97 </feature>
						<threshold> 2.8973465 </threshold>
						<split pos="left">
							<output> 0.33947962522506714 </output>
						</split>
						<split pos="right">
							<output> 0.6377290487289429 </output>
						</split>
					</split>
				</split>
			</split>
			<split pos="right">
				<feature> 97 </feature>
				<threshold> 3.7888374 </threshold>
				<split pos="left">
					<feature> 77 </feature>
					<threshold> 11.991749 </threshold>
					<split pos="left">
						<feature> 75 </feature>
						<threshold> 9.779767 </threshold>
						<split pos="left">
							<output> 0.37124648690223694 </output>
						</split>
						<split pos="right">
							<output> 1.1548800468444824 </output>
						</split>
					</split>
					<split pos="right">
						<output> 0.7022809982299805 </output>
					</split>
				</split>
				<split pos="right">
					<output> 0.8185904622077942 </output>
				</split>
			</split>
		</split>
	</tree>
	<tree id="6" weight="0.1">
		<split>
			<feature> 8 </feature>
			<threshold> 9.012357 </threshold>
			<split pos="left">
				<feature> 98 </feature>
				<threshold> 4.8124337 </threshold>
				<split pos="left">
					<feature> 7 </feature>
					<threshold> 3.4003313 </threshold>
					<split pos="left">
						<feature> 19 </feature>
						<threshold> 0.92462397 </threshold>
						<split pos="left">
							<output> 0.09743013978004456 </output>
						</split>
						<split pos="right">
							<feature> 89 </feature>
							<threshold> 0.0 </threshold>
							<split pos="left">
								<output> 0.18306657671928406 </output>
							</split>
							<split pos="right">
								<output> 0.4632033705711365 </output>
							</split>
						</split>
					</split>
					<split pos="right">
						<output> 0.39888736605644226 </output>
					</split>
				</split>
				<split pos="right">
					<feature> 111 </feature>
					<threshold> 5.3173504 </threshold>
					<split pos="left">
						<feature> 52 </feature>
						<threshold> 9.2800045 </threshold>
						<split pos="left">
							<feature> 20 </feature>
							<threshold> 1.0647339 </threshold>
							<split pos="left">
								<output> 0.2268448919057846 </output>
							</split>
							<split pos="right">
								<output> 0.4085460603237152 </output>
							</split>
						</split>
						<split pos="right">
							<output> 0.5586825609207153 </output>
						</split>
					</split>
					<split pos="right">
						<output> 0.9218106865882874 </output>
					</split>
				</split>
			</split>
			<split pos="right">
				<feature> 20 </feature>
				<threshold> 1.0105947 </threshold>
				<split pos="left">
					<output> 0.37758123874664307 </output>
				</split>
				<split pos="right">
					<output> 0.7534530162811279 </output>
				</split>
			</split>
		</split>
	</tree>
	<tree id="7" weight="0.1">
		<split>
			<feature> 8 </feature>
			<threshold> 9.012357 </threshold>
			<split pos="left">
				<feature> 97 </feature>
				<threshold> 3.5659647 </threshold>
				<split pos="left">
					<feature> 52 </feature>
					<threshold> 4.8256016 </threshold>
					<split pos="left">
						<feature> 13 </feature>
						<threshold> 1.5481136 </threshold>
						<split pos="left">
							<feature> 23 </feature>
							<threshold> 1.4509647 </threshold>
							<split pos="left">
								<output> 0.05287076160311699 </output>
							</split>
							<split pos="right">
								<output> 0.1599571853876114 </output>
							</split>
						</split>
						<split pos="right">
							<feature> 107 </feature>
							<threshold> 6.916232 </threshold>
							<split pos="left">
								<feature> 16 </feature>
								<threshold> 0.8594998 </threshold>
								<split pos="left">
									<output> 0.209799125790596 </output>
								</split>
								<split pos="right">
									<output> 0.11614198237657547 </output>
								</split>
							</split>
							<split pos="right">
								<output> 0.34692317247390747 </output>
							</split>
						</split>
					</split>
					<split pos="right">
						<output> 0.30362898111343384 </output>
					</split>
				</split>
				<split pos="right">
					<feature> 9 </feature>
					<threshold> 4.1031613 </threshold>
					<split pos="left">
						<output> 0.26351475715637207 </output>
					</split>
					<split pos="right">
						<output> 0.508487343788147 </output>
					</split>
				</split>
			</split>
			<split pos="right">
				<feature> 20 </feature>
				<threshold> 1.0105947 </threshold>
				<split pos="left">
					<output> 0.3398250639438629 </output>
				</split>
				<split pos="right">
					<output> 0.6780939698219299 </output>
				</split>
			</split>
		</split>
	</tree>
	<tree id="8" weight="0.1">
		<split>
			<feature> 52 </feature>
			<threshold> 4.0832014 </threshold>
			<split pos="left">
				<feature> 107 </feature>
				<threshold> 5.5776052 </threshold>
				<split pos="left">
					<feature> 20 </feature>
					<threshold> 1.0105947 </threshold>
					<split pos="left">
						<feature> 19 </feature>
						<threshold> 1.8087901 </threshold>
						<split pos="left">
							<output> 0.04265648499131203 </output>
						</split>
						<split pos="right">
							<output> 0.2103080004453659 </output>
						</split>
					</split>
					<split pos="right">
						<feature> 97 </feature>
						<threshold> 2.6744738 </threshold>
						<split pos="left">
							<feature> 62 </feature>
							<threshold> 2.8810976 </threshold>
							<split pos="left">
								<output> 0.142535001039505 </output>
							</split>
							<split pos="right">
								<output> 0.4560484290122986 </output>
							</split>
						</split>
						<split pos="right">
							<output> 0.3601399064064026 </output>
						</split>
					</split>
				</split>
				<split pos="right">
					<output> 0.33899450302124023 </output>
				</split>
			</split>
			<split pos="right">
				<feature> 75 </feature>
				<threshold> 5.8424544 </threshold>
				<split pos="left">
					<feature> 2 </feature>
					<threshold> 7.5283914 </threshold>
					<split pos="left">
						<feature> 77 </feature>
						<threshold> 9.289387 </threshold>
						<split pos="left">
							<output> 0.24513933062553406 </output>
						</split>
						<split pos="right">
							<output> 0.43251654505729675 </output>
						</split>
					</split>
					<split pos="right">
						<output> 0.6766858696937561 </output>
					</split>
				</split>
				<split pos="right">
					<output> 0.6595526933670044 </output>
				</split>
			</split>
		</split>
	</tree>
	<tree id="9" weight="0.1">
		<split>
			<feature> 7 </feature>
			<threshold> 3.6960123 </threshold>
			<split pos="left">
				<feature> 98 </feature>
				<threshold> 4.8124337 </threshold>
				<split pos="left">
					<feature> 8 </feature>
					<threshold> 8.095845 </threshold>
					<split pos="left">
						<feature> 89 </feature>
						<threshold> 0.4286825 </threshold>
						<split pos="left">
							<feature> 13 </feature>
							<threshold> 9.460695 </threshold>
							<split pos="left">
								<feature> 108 </feature>
								<threshold> 1.9512488 </threshold>
								<split pos="left">
									<feature> 3 </feature>
									<threshold> 0.86345375 </threshold>
									<split pos="left">
										<output> 0.015799732878804207 </output>
									</split>
									<split pos="right">
										<output> 0.09751908481121063 </output>
									</split>
								</split>
								<split pos="right">
									<output> 0.18590950965881348 </output>
								</split>
							</split>
							<split pos="right">
								<output> 0.3838566541671753 </output>
							</split>
						</split>
						<split pos="right">
							<output> 0.21415700018405914 </output>
						</split>
					</split>
					<split pos="right">
						<output> 0.33343374729156494 </output>
					</split>
				</split>
				<split pos="right">
					<feature> 20 </feature>
					<threshold> 1.0105947 </threshold>
					<split pos="left">
						<output> 0.18889102339744568 </output>
					</split>
					<split pos="right">
						<output> 0.3567928075790405 </output>
					</split>
				</split>
			</split>
			<split pos="right">
				<feature> 19 </feature>
				<threshold> 1.344538 </threshold>
				<split pos="left">
					<output> 0.3159644305706024 </output>
				</split>
				<split pos="right">
					<output> 0.6452167630195618 </output>
				</split>
			</split>
		</split>
	</tree>
	<tree id="10" weight="0.1">
		<split>
			<feature> 73 </feature>
			<threshold> 4.1783133 </threshold>
			<split pos="left">
				<feature> 53 </feature>
				<threshold> 10.3457775 </threshold>
				<split pos="left">
					<feature> 13 </feature>
					<threshold> 2.9242141 </threshold>
					<split pos="left">
						<feature> 19 </feature>
						<threshold> 1.5756282 </threshold>
						<split pos="left">
							<output> 0.04147568717598915 </output>
						</split>
						<split pos="right">
							<feature> 89 </feature>
							<threshold> 2.0005183 </threshold>
							<split pos="left">
								<feature> 8 </feature>
								<threshold> 8.248597 </threshold>
								<split pos="left">
									<output> 0.0958053469657898 </output>
								</split>
								<split pos="right">
									<output> 0.38132089376449585 </output>
								</split>
							</split>
							<split pos="right">
								<output> 0.3812650442123413 </output>
							</split>
						</split>
					</split>
					<split pos="right">
						<output> 0.22266389429569244 </output>
					</split>
				</split>
				<split pos="right">
					<feature> 2 </feature>
					<threshold> 7.5283914 </threshold>
					<split pos="left">
						<feature> 77 </feature>
						<threshold> 13.511827 </threshold>
						<split pos="left">
							<feature> 16 </feature>
							<threshold> 1.1050712 </threshold>
							<split pos="left">
								<output> 0.29935213923454285 </output>
							</split>
							<split pos="right">
								<output> 0.16130253672599792 </output>
							</split>
						</split>
						<split pos="right">
							<output> 0.45281708240509033 </output>
						</split>
					</split>
					<split pos="right">
						<output> 0.5233924984931946 </output>
					</split>
				</split>
			</split>
			<split pos="right">
				<output> 0.5022996068000793 </output>
			</split>
		</split>
	</tree>
	<tree id="11" weight="0.1">
		<split>
			<feature> 5 </feature>
			<threshold> 4.4475546 </threshold>
			<split pos="left">
				<feature> 98 </feature>
				<threshold> 4.491605 </threshold>
				<split pos="left">
					<feature> 13 </feature>
					<threshold> 6.3644686 </threshold>
					<split pos="left">
						<feature> 19 </feature>
						<threshold> 1.5756282 </threshold>
						<split pos="left">
							<output> 0.03669199347496033 </output>
						</split>
						<split pos="right">
							<feature> 62 </feature>
							<threshold> 1.8837943 </threshold>
							<split pos="left">
								<feature> 106 </feature>
								<threshold> 0.8333074 </threshold>
								<split pos="left">
									<output> 0.21410001814365387 </output>
								</split>
								<split pos="right">
									<output> 0.07418746501207352 </output>
								</split>
							</split>
							<split pos="right">
								<output> 0.44559869170188904 </output>
							</split>
						</split>
					</split>
					<split pos="right">
						<output> 0.24760781228542328 </output>
					</split>
				</split>
				<split pos="right">
					<feature> 20 </feature>
					<threshold> 1.0647339 </threshold>
					<split pos="left">
						<output> 0.13535207509994507 </output>
					</split>
					<split pos="right">
						<feature> 49 </feature>
						<threshold> 4.560487 </threshold>
						<split pos="left">
							<feature> 62 </feature>
							<threshold> 1.8837943 </threshold>
							<split pos="left">
								<output> 0.24370381236076355 </output>
							</split>
							<split pos="right">
								<output> 0.5081212520599365 </output>
							</split>
						</split>
						<split pos="right">
							<output> 0.6451243162155151 </output>
						</split>
					</split>
				</split>
			</split>
			<split pos="right">
				<output> 0.4456489384174347 </output>
			</split>
		</split>
	</tree>
	<tree id="12" weight="0.1">
		<split>
			<feature> 77 </feature>
			<threshold> 10.3027725 </threshold>
			<split pos="left">
				<feature> 97 </feature>
				<threshold> 2.6744738 </threshold>
				<split pos="left">
					<feature> 110 </feature>
					<threshold> 2.2233596 </threshold>
					<split pos="left">
						<feature> 19 </feature>
						<threshold> 1.344538 </threshold>
						<split pos="left">
							<feature> 107 </feature>
							<threshold> 7.250889 </threshold>
							<split pos="left">
								<output> 0.025047095492482185 </output>
							</split>
							<split pos="right">
								<output> 0.27606168389320374 </output>
							</split>
						</split>
						<split pos="right">
							<feature> 88 </feature>
							<threshold> 4.9134817 </threshold>
							<split pos="left">
								<feature> 106 </feature>
								<threshold> 0.729144 </threshold>
								<split pos="left">
									<output> 0.20186635851860046 </output>
								</split>
								<split pos="right">
									<output> 0.07472199946641922 </output>
								</split>
							</split>
							<split pos="right">
								<output> 0.7860921621322632 </output>
							</split>
						</split>
					</split>
					<split pos="right">
						<output> 0.24128107726573944 </output>
					</split>
				</split>
				<split pos="right">
					<feature> 20 </feature>
					<threshold> 1.4437078 </threshold>
					<split pos="left">
						<output> 0.12769584357738495 </output>
					</split>
					<split pos="right">
						<feature> 7 </feature>
						<threshold> 3.1046503 </threshold>
						<split pos="left">
							<output> 0.2683367431163788 </output>
						</split>
						<split pos="right">
							<output> 0.5532820820808411 </output>
						</split>
					</split>
				</split>
			</split>
			<split pos="right">
				<output> 0.41154322028160095 </output>
			</split>
		</split>
	</tree>
	<tree id="13" weight="0.1">
		<split>
			<feature> 75 </feature>
			<threshold> 6.223484 </threshold>
			<split pos="left">
				<feature> 77 </feature>
				<threshold> 6.755919 </threshold>
				<split pos="left">
					<feature> 107 </feature>
					<threshold> 8.81262 </threshold>
					<split pos="left">
						<feature> 3 </feature>
						<threshold> 6.279667 </threshold>
						<split pos="left">
							<feature> 19 </feature>
							<threshold> 1.5617965 </threshold>
							<split pos="left">
								<output> 0.028157860040664673 </output>
							</split>
							<split pos="right">
								<feature> 73 </feature>
								<threshold> 3.5007489 </threshold>
								<split pos="left">
									<feature> 7 </feature>
									<threshold> 8.131227 </threshold>
									<split pos="left">
										<output> 0.08582214266061783 </output>
									</split>
									<split pos="right">
										<output> 0.5036388039588928 </output>
									</split>
								</split>
								<split pos="right">
									<output> 0.4249935746192932 </output>
								</split>
							</split>
						</split>
						<split pos="right">
							<output> 0.4974932372570038 </output>
						</split>
					</split>
					<split pos="right">
						<output> 0.28077995777130127 </output>
					</split>
				</split>
				<split pos="right">
					<feature> 20 </feature>
					<threshold> 1.5519861 </threshold>
					<split pos="left">
						<output> 0.10603144019842148 </output>
					</split>
					<split pos="right">
						<output> 0.27023670077323914 </output>
					</split>
				</split>
			</split>
			<split pos="right">
				<feature> 102 </feature>
				<threshold> 4.6872845 </threshold>
				<split pos="left">
					<output> 0.26942411065101624 </output>
				</split>
				<split pos="right">
					<output> 0.6187704205513 </output>
				</split>
			</split>
		</split>
	</tree>
	<tree id="14" weight="0.1">
		<split>
			<feature> 5 </feature>
			<threshold> 4.6063957 </threshold>
			<split pos="left">
				<feature> 20 </feature>
				<threshold> 1.5519861 </threshold>
				<split pos="left">
					<feature> 19 </feature>
					<threshold> 0.95402956 </threshold>
					<split pos="left">
						<feature> 15 </feature>
						<threshold> 20.629406 </threshold>
						<split pos="left">
							<feature> 38 </feature>
							<threshold> 8.393267 </threshold>
							<split pos="left">
								<output> 0.019721316173672676 </output>
							</split>
							<split pos="right">
								<output> -0.24499432742595673 </output>
							</split>
						</split>
						<split pos="right">
							<output> 0.38476648926734924 </output>
						</split>
					</split>
					<split pos="right">
						<output> 0.17069602012634277 </output>
					</split>
				</split>
				<split pos="right">
					<feature> 62 </feature>
					<threshold> 1.8837943 </threshold>
					<split pos="left">
						<feature> 7 </feature>
						<threshold> 2.9568098 </threshold>
						<split pos="left">
							<feature> 50 </feature>
							<threshold> 18.342325 </threshold>
							<split pos="left">
								<feature> 7 </feature>
								<threshold> 0.8870429 </threshold>
								<split pos="left">
									<output> 0.14512981474399567 </output>
								</split>
								<split pos="right">
									<output> 0.041125599294900894 </output>
								</split>
							</split>
							<split pos="right">
								<output> 0.600498616695404 </output>
							</split>
						</split>
						<split pos="right">
							<output> 0.3072936236858368 </output>
						</split>
					</split>
					<split pos="right">
						<output> 0.41120317578315735 </output>
					</split>
				</split>
			</split>
			<split pos="right">
				<output> 0.35309433937072754 </output>
			</split>
		</split>
	</tree>
	<tree id="15" weight="0.1">
		<split>
			<feature> 52 </feature>
			<threshold> 6.681602 </threshold>
			<split pos="left">
				<feature> 20 </feature>
				<threshold> 1.7685426 </threshold>
				<split pos="left">
					<feature> 19 </feature>
					<threshold> 0.95402956 </threshold>
					<split pos="left">
						<output> 0.01089891605079174 </output>
					</split>
					<split pos="right">
						<output> 0.13405491411685944 </output>
					</split>
				</split>
				<split pos="right">
					<feature> 7 </feature>
					<threshold> 3.1046503 </threshold>
					<split pos="left">
						<feature> 62 </feature>
						<threshold> 1.8837943 </threshold>
						<split pos="left">
							<feature> 32 </feature>
							<threshold> 1.4418545 </threshold>
							<split pos="left">
								<feature> 50 </feature>
								<threshold> 19.82154 </threshold>
								<split pos="left">
									<feature> 76 </feature>
									<threshold> 0.97671956 </threshold>
									<split pos="left">
										<output> 0.12674419581890106 </output>
									</split>
									<split pos="right">
										<output> 0.033049989491701126 </output>
									</split>
								</split>
								<split pos="right">
									<output> 0.6540554165840149 </output>
								</split>
							</split>
							<split pos="right">
								<output> 0.44423744082450867 </output>
							</split>
						</split>
						<split pos="right">
							<output> 0.3063248097896576 </output>
						</split>
					</split>
					<split pos="right">
						<output> 0.4196227490901947 </output>
					</split>
				</split>
			</split>
			<split pos="right">
				<feature> 105 </feature>
				<threshold> 5.9564548 </threshold>
				<split pos="left">
					<output> 0.22537070512771606 </output>
				</split>
				<split pos="right">
					<output> 0.545087993144989 </output>
				</split>
			</split>
		</split>
	</tree>
	<tree id="16" weight="0.1">
		<split>
			<feature> 8 </feature>
			<threshold> 10.234372 </threshold>
			<split pos="left">
				<feature> 110 </feature>
				<threshold> 4.8805466 </threshold>
				<split pos="left">
					<feature> 20 </feature>
					<threshold> 1.5158933 </threshold>
					<split pos="left">
						<feature> 19 </feature>
						<threshold> 1.6102223 </threshold>
						<split pos="left">
							<output> 0.004314228426665068 </output>
						</split>
						<split pos="right">
							<output> 0.14293982088565826 </output>
						</split>
					</split>
					<split pos="right">
						<feature> 73 </feature>
						<threshold> 4.1783133 </threshold>
						<split pos="left">
							<feature> 89 </feature>
							<threshold> 1.857624 </threshold>
							<split pos="left">
								<feature> 50 </feature>
								<threshold> 16.86311 </threshold>
								<split pos="left">
									<feature> 13 </feature>
									<threshold> 10.492769 </threshold>
									<split pos="left">
										<feature> 57 </feature>
										<threshold> 19.175383 </threshold>
										<split pos="left">
											<output> 0.11587453633546829 </output>
										</split>
										<split pos="right">
											<output> 0.019735706970095634 </output>
										</split>
									</split>
									<split pos="right">
										<output> 0.3440176248550415 </output>
									</split>
								</split>
								<split pos="right">
									<output> 0.44647714495658875 </output>
								</split>
							</split>
							<split pos="right">
								<output> 0.21058005094528198 </output>
							</split>
						</split>
						<split pos="right">
							<output> 0.4264308214187622 </output>
						</split>
					</split>
				</split>
				<split pos="right">
					<output> 0.40020549297332764 </output>
				</split>
			</split>
			<split pos="right">
				<output> 0.28522399067878723 </output>
			</split>
		</split>
	</tree>
	<tree id="17" weight="0.1">
		<split>
			<feature> 3 </feature>
			<threshold> 6.279667 </threshold>
			<split pos="left">
				<feature> 110 </feature>
				<threshold> 4.392492 </threshold>
				<split pos="left">
					<feature> 20 </feature>
					<threshold> 1.6241716 </threshold>
					<split pos="left">
						<feature> 8 </feature>
						<threshold> 16.191696 </threshold>
						<split pos="left">
							<feature> 19 </feature>
							<threshold> 1.6463697 </threshold>
							<split pos="left">
								<output> -0.0033621350303292274 </output>
							</split>
							<split pos="right">
								<output> 0.11578661948442459 </output>
							</split>
						</split>
						<split pos="right">
							<output> 0.3474503457546234 </output>
						</split>
					</split>
					<split pos="right">
						<feature> 97 </feature>
						<threshold> 2.6744738 </threshold>
						<split pos="left">
							<feature> 21 </feature>
							<threshold> 1.0077713 </threshold>
							<split pos="left">
								<output> 0.21668016910552979 </output>
							</split>
							<split pos="right">
								<feature> 77 </feature>
								<threshold> 18.578756 </threshold>
								<split pos="left">
									<feature> 32 </feature>
									<threshold> 1.4418545 </threshold>
									<split pos="left">
										<output> 0.03484690561890602 </output>
									</split>
									<split pos="right">
										<output> 0.5108138918876648 </output>
									</split>
								</split>
								<split pos="right">
									<output> 0.4997159540653229 </output>
								</split>
							</split>
						</split>
						<split pos="right">
							<output> 0.2193646878004074 </output>
						</split>
					</split>
				</split>
				<split pos="right">
					<output> 0.3443247675895691 </output>
				</split>
			</split>
			<split pos="right">
				<output> 0.34467998147010803 </output>
			</split>
		</split>
	</tree>
	<tree id="18" weight="0.1">
		<split>
			<feature> 73 </feature>
			<threshold> 4.1783133 </threshold>
			<split pos="left">
				<feature> 107 </feature>
				<threshold> 5.8007097 </threshold>
				<split pos="left">
					<feature> 53 </feature>
					<threshold> 10.3457775 </threshold>
					<split pos="left">
						<feature> 88 </feature>
						<threshold> 4.699852 </threshold>
						<split pos="left">
							<feature> 13 </feature>
							<threshold> 2.9242141 </threshold>
							<split pos="left">
								<feature> 32 </feature>
								<threshold> 1.802318 </threshold>
								<split pos="left">
									<feature> 11 </feature>
									<threshold> 5.754294 </threshold>
									<split pos="left">
										<feature> 1 </feature>
										<threshold> 10.4067545 </threshold>
										<split pos="left">
											<feature> 51 </feature>
											<threshold> 4.990474 </threshold>
											<split pos="left">
												<output> -0.0029415288008749485 </output>
											</split>
											<split pos="right">
												<output> 0.047518860548734665 </output>
											</split>
										</split>
										<split pos="right">
											<output> 1.0837565660476685 </output>
										</split>
									</split>
									<split pos="right">
										<output> -0.10613755136728287 </output>
									</split>
								</split>
								<split pos="right">
									<output> 0.19642914831638336 </output>
								</split>
							</split>
							<split pos="right">
								<output> 0.07604670524597168 </output>
							</split>
						</split>
						<split pos="right">
							<output> 0.3178611099720001 </output>
						</split>
					</split>
					<split pos="right">
						<output> 0.10697507113218307 </output>
					</split>
				</split>
				<split pos="right">
					<output> 0.16870906949043274 </output>
				</split>
			</split>
			<split pos="right">
				<output> 0.2583601176738739 </output>
			</split>
		</split>
	</tree>
	<tree id="19" weight="0.1">
		<split>
			<feature> 52 </feature>
			<threshold> 7.424002 </threshold>
			<split pos="left">
				<feature> 20 </feature>
				<threshold> 1.0105947 </threshold>
				<split pos="left">
					<feature> 19 </feature>
					<threshold> 0.95402956 </threshold>
					<split pos="left">
						<output> -0.0028272191993892193 </output>
					</split>
					<split pos="right">
						<output> 0.09354434162378311 </output>
					</split>
				</split>
				<split pos="right">
					<feature> 1 </feature>
					<threshold> 3.6122663 </threshold>
					<split pos="left">
						<feature> 62 </feature>
						<threshold> 1.7729828 </threshold>
						<split pos="left">
							<feature> 50 </feature>
							<threshold> 18.342325 </threshold>
							<split pos="left">
								<feature> 32 </feature>
								<threshold> 1.4418545 </threshold>
								<split pos="left">
									<feature> 13 </feature>
									<threshold> 11.352831 </threshold>
									<split pos="left">
										<feature> 76 </feature>
										<threshold> 0.97671956 </threshold>
										<split pos="left">
											<output> 0.08017312735319138 </output>
										</split>
										<split pos="right">
											<output> 0.005588964559137821 </output>
										</split>
									</split>
									<split pos="right">
										<output> 0.28672561049461365 </output>
									</split>
								</split>
								<split pos="right">
									<output> 0.3250243067741394 </output>
								</split>
							</split>
							<split pos="right">
								<output> 0.4884658455848694 </output>
							</split>
						</split>
						<split pos="right">
							<output> 0.2244010716676712 </output>
						</split>
					</split>
					<split pos="right">
						<output> 0.3444908559322357 </output>
					</split>
				</split>
			</split>
			<split pos="right">
				<output> 0.20828694105148315 </output>
			</split>
		</split>
	</tree>
	<tree id="20" weight="0.1">
		<split>
			<feature> 75 </feature>
			<threshold> 6.8585334 </threshold>
			<split pos="left">
				<feature> 107 </feature>
				<threshold> 5.6891575 </threshold>
				<split pos="left">
					<feature> 33 </feature>
					<threshold> 1.448064 </threshold>
					<split pos="left">
						<feature> 3 </feature>
						<threshold> 6.9861307 </threshold>
						<split pos="left">
							<feature> 55 </feature>
							<threshold> 10.702063 </threshold>
							<split pos="left">
								<feature> 16 </feature>
								<threshold> 1.1050712 </threshold>
								<split pos="left">
									<feature> 51 </feature>
									<threshold> 6.0598617 </threshold>
									<split pos="left">
										<feature> 52 </feature>
										<threshold> 22.643225 </threshold>
										<split pos="left">
											<feature> 103 </feature>
											<threshold> 3.190307 </threshold>
											<split pos="left">
												<output> 0.005977412220090628 </output>
											</split>
											<split pos="right">
												<output> 0.22021985054016113 </output>
											</split>
										</split>
										<split pos="right">
											<output> 0.43574562668800354 </output>
										</split>
									</split>
									<split pos="right">
										<output> 0.1183295026421547 </output>
									</split>
								</split>
								<split pos="right">
									<output> -0.03309009224176407 </output>
								</split>
							</split>
							<split pos="right">
								<output> 0.11461179703474045 </output>
							</split>
						</split>
						<split pos="right">
							<output> 0.3615756332874298 </output>
						</split>
					</split>
					<split pos="right">
						<output> 0.23013292253017426 </output>
					</split>
				</split>
				<split pos="right">
					<output> 0.12864753603935242 </output>
				</split>
			</split>
			<split pos="right">
				<output> 0.19765762984752655 </output>
			</split>
		</split>
	</tree>
	<tree id="21" weight="0.1">
		<split>
			<feature> 77 </feature>
			<threshold> 10.3027725 </threshold>
			<split pos="left">
				<feature> 102 </feature>
				<threshold> 6.2497134 </threshold>
				<split pos="left">
					<feature> 55 </feature>
					<threshold> 10.702063 </threshold>
					<split pos="left">
						<feature> 31 </feature>
						<threshold> 0.0 </threshold>
						<split pos="left">
							<feature> 19 </feature>
							<threshold> 1.6102223 </threshold>
							<split pos="left">
								<feature> 20 </feature>
								<threshold> 1.9670528 </threshold>
								<split pos="left">
									<output> -0.015469064936041832 </output>
								</split>
								<split pos="right">
									<output> 0.06347060948610306 </output>
								</split>
							</split>
							<split pos="right">
								<feature> 73 </feature>
								<threshold> 4.1783133 </threshold>
								<split pos="left">
									<feature> 13 </feature>
									<threshold> 12.04088 </threshold>
									<split pos="left">
										<feature> 57 </feature>
										<threshold> 19.175383 </threshold>
										<split pos="left">
											<output> 0.07650818675756454 </output>
										</split>
										<split pos="right">
											<output> 0.0016549057327210903 </output>
										</split>
									</split>
									<split pos="right">
										<output> 0.44681987166404724 </output>
									</split>
								</split>
								<split pos="right">
									<output> 0.35665324330329895 </output>
								</split>
							</split>
						</split>
						<split pos="right">
							<output> 0.3224278390407562 </output>
						</split>
					</split>
					<split pos="right">
						<output> 0.12228834629058838 </output>
					</split>
				</split>
				<split pos="right">
					<output> 0.37945595383644104 </output>
				</split>
			</split>
			<split pos="right">
				<output> 0.20403994619846344 </output>
			</split>
		</split>
	</tree>
	<tree id="22" weight="0.1">
		<split>
			<feature> 8 </feature>
			<threshold> 10.692628 </threshold>
			<split pos="left">
				<feature> 111 </feature>
				<threshold> 5.4554634 </threshold>
				<split pos="left">
					<feature> 20 </feature>
					<threshold> 1.5519861 </threshold>
					<split pos="left">
						<feature> 74 </feature>
						<threshold> 2.6595287 </threshold>
						<split pos="left">
							<feature> 3 </feature>
							<threshold> 5.494707 </threshold>
							<split pos="left">
								<output> 0.01567809097468853 </output>
							</split>
							<split pos="right">
								<output> 0.32049375772476196 </output>
							</split>
						</split>
						<split pos="right">
							<output> -0.08202525228261948 </output>
						</split>
					</split>
					<split pos="right">
						<feature> 73 </feature>
						<threshold> 4.1783133 </threshold>
						<split pos="left">
							<feature> 21 </feature>
							<threshold> 1.0077713 </threshold>
							<split pos="left">
								<output> 0.16018621623516083 </output>
							</split>
							<split pos="right">
								<feature> 106 </feature>
								<threshold> 0.52081716 </threshold>
								<split pos="left">
									<output> 0.1337425261735916 </output>
								</split>
								<split pos="right">
									<feature> 62 </feature>
									<threshold> 1.6621714 </threshold>
									<split pos="left">
										<output> 0.0034496691077947617 </output>
									</split>
									<split pos="right">
										<output> 0.15779700875282288 </output>
									</split>
								</split>
							</split>
						</split>
						<split pos="right">
							<output> 0.2832657992839813 </output>
						</split>
					</split>
				</split>
				<split pos="right">
					<output> 0.2863319218158722 </output>
				</split>
			</split>
			<split pos="right">
				<output> 0.18567262589931488 </output>
			</split>
		</split>
	</tree>
	<tree id="23" weight="0.1">
		<split>
			<feature> 3 </feature>
			<threshold> 6.279667 </threshold>
			<split pos="left">
				<feature> 110 </feature>
				<threshold> 4.392492 </threshold>
				<split pos="left">
					<feature> 20 </feature>
					<threshold> 1.9670528 </threshold>
					<split pos="left">
						<feature> 41 </feature>
						<threshold> 6.0606685 </threshold>
						<split pos="left">
							<feature> 107 </feature>
							<threshold> 10.82056 </threshold>
							<split pos="left">
								<feature> 33 </feature>
								<threshold> 1.448064 </threshold>
								<split pos="left">
									<feature> 19 </feature>
									<threshold> 0.95402956 </threshold>
									<split pos="left">
										<output> -0.01656101644039154 </output>
									</split>
									<split pos="right">
										<output> 0.06841304153203964 </output>
									</split>
								</split>
								<split pos="right">
									<output> 0.2832197844982147 </output>
								</split>
							</split>
							<split pos="right">
								<output> 0.32056713104248047 </output>
							</split>
						</split>
						<split pos="right">
							<output> -0.24412177503108978 </output>
						</split>
					</split>
					<split pos="right">
						<feature> 97 </feature>
						<threshold> 2.6744738 </threshold>
						<split pos="left">
							<feature> 75 </feature>
							<threshold> 7.7476025 </threshold>
							<split pos="left">
								<output> 0.02647431567311287 </output>
							</split>
							<split pos="right">
								<output> 0.4650130569934845 </output>
							</split>
						</split>
						<split pos="right">
							<output> 0.13676553964614868 </output>
						</split>
					</split>
				</split>
				<split pos="right">
					<output> 0.23146989941596985 </output>
				</split>
			</split>
			<split pos="right">
				<output> 0.2233312427997589 </output>
			</split>
		</split>
	</tree>
	<tree id="24" weight="0.1">
		<split>
			<feature> 77 </feature>
			<threshold> 10.3027725 </threshold>
			<split pos="left">
				<feature> 102 </feature>
				<threshold> 6.2497134 </threshold>
				<split pos="left">
					<feature> 55 </feature>
					<threshold> 11.558228 </threshold>
					<split pos="left">
						<feature> 31 </feature>
						<threshold> 0.0 </threshold>
						<split pos="left">
							<feature> 57 </feature>
							<threshold> 17.50796 </threshold>
							<split pos="left">
								<feature> 54 </feature>
								<threshold> 18.4093 </threshold>
								<split pos="left">
									<output> 0.020815299823880196 </output>
								</split>
								<split pos="right">
									<output> 0.18249037861824036 </output>
								</split>
							</split>
							<split pos="right">
								<feature> 99 </feature>
								<threshold> 12.597404 </threshold>
								<split pos="left">
									<feature> 111 </feature>
									<threshold> 6.8365936 </threshold>
									<split pos="left">
										<feature> 51 </feature>
										<threshold> 24.239447 </threshold>
										<split pos="left">
											<output> -0.020485781133174896 </output>
										</split>
										<split pos="right">
											<output> -0.2726954519748688 </output>
										</split>
									</split>
									<split pos="right">
										<output> 0.8375449180603027 </output>
									</split>
								</split>
								<split pos="right">
									<output> 0.04466338828206062 </output>
								</split>
							</split>
						</split>
						<split pos="right">
							<output> 0.24180462956428528 </output>
						</split>
					</split>
					<split pos="right">
						<output> 0.1024358868598938 </output>
					</split>
				</split>
				<split pos="right">
					<output> 0.30074337124824524 </output>
				</split>
			</split>
			<split pos="right">
				<output> 0.15825209021568298 </output>
			</split>
		</split>
	</tree>
	<tree id="25" weight="0.1">
		<split>
			<feature> 3 </feature>
			<threshold> 6.279667 </threshold>
			<split pos="left">
				<feature> 90 </feature>
				<threshold> 11.893585 </threshold>
				<split pos="left">
					<feature> 111 </feature>
					<threshold> 4.972068 </threshold>
					<split pos="left">
						<feature> 20 </feature>
						<threshold> 2.3279803 </threshold>
						<split pos="left">
							<feature> 74 </feature>
							<threshold> 2.6595287 </threshold>
							<split pos="left">
								<output> 0.015377257950603962 </output>
							</split>
							<split pos="right">
								<output> -0.0751202404499054 </output>
							</split>
						</split>
						<split pos="right">
							<feature> 73 </feature>
							<threshold> 4.1783133 </threshold>
							<split pos="left">
								<feature> 14 </feature>
								<threshold> 31.09865 </threshold>
								<split pos="left">
									<feature> 21 </feature>
									<threshold> 0.9836261 </threshold>
									<split pos="left">
										<output> 0.13352128863334656 </output>
									</split>
									<split pos="right">
										<feature> 81 </feature>
										<threshold> 11.997487 </threshold>
										<split pos="left">
											<output> 0.045599792152643204 </output>
										</split>
										<split pos="right">
											<output> -0.04166119545698166 </output>
										</split>
									</split>
								</split>
								<split pos="right">
									<output> 0.5122666358947754 </output>
								</split>
							</split>
							<split pos="right">
								<output> 0.23936094343662262 </output>
							</split>
						</split>
					</split>
					<split pos="right">
						<output> 0.2054803967475891 </output>
					</split>
				</split>
				<split pos="right">
					<output> 0.4100029766559601 </output>
				</split>
			</split>
			<split pos="right">
				<output> 0.18939699232578278 </output>
			</split>
		</split>
	</tree>
	<tree id="26" weight="0.1">
		<split>
			<feature> 52 </feature>
			<threshold> 7.424002 </threshold>
			<split pos="left">
				<feature> 107 </feature>
				<threshold> 3.23501 </threshold>
				<split pos="left">
					<feature> 33 </feature>
					<threshold> 1.448064 </threshold>
					<split pos="left">
						<feature> 91 </feature>
						<threshold> 1.5843252 </threshold>
						<split pos="left">
							<feature> 13 </feature>
							<threshold> 7.912584 </threshold>
							<split pos="left">
								<feature> 49 </feature>
								<threshold> 7.980851 </threshold>
								<split pos="left">
									<feature> 51 </feature>
									<threshold> 23.526522 </threshold>
									<split pos="left">
										<feature> 98 </feature>
										<threshold> 20.853899 </threshold>
										<split pos="left">
											<output> -0.006386158522218466 </output>
										</split>
										<split pos="right">
											<output> 0.2812447249889374 </output>
										</split>
									</split>
									<split pos="right">
										<output> -0.19792233407497406 </output>
									</split>
								</split>
								<split pos="right">
									<output> 0.19396646320819855 </output>
								</split>
							</split>
							<split pos="right">
								<output> 0.1663440316915512 </output>
							</split>
						</split>
						<split pos="right">
							<output> -0.15056848526000977 </output>
						</split>
					</split>
					<split pos="right">
						<output> 0.2681320905685425 </output>
					</split>
				</split>
				<split pos="right">
					<feature> 5 </feature>
					<threshold> 1.0324687 </threshold>
					<split pos="left">
						<output> -0.015835531055927277 </output>
					</split>
					<split pos="right">
						<output> 0.08504865318536758 </output>
					</split>
				</split>
			</split>
			<split pos="right">
				<output> 0.12081275135278702 </output>
			</split>
		</split>
	</tree>
	<tree id="27" weight="0.1">
		<split>
			<feature> 8 </feature>
			<threshold> 10.692628 </threshold>
			<split pos="left">
				<feature> 11 </feature>
				<threshold> 9.206869 </threshold>
				<split pos="left">
					<feature> 16 </feature>
					<threshold> 0.61392844 </threshold>
					<split pos="left">
						<feature> 31 </feature>
						<threshold> 0.0 </threshold>
						<split pos="left">
							<feature> 51 </feature>
							<threshold> 6.0598617 </threshold>
							<split pos="left">
								<feature> 33 </feature>
								<threshold> 1.448064 </threshold>
								<split pos="left">
									<feature> 3 </feature>
									<threshold> 5.730195 </threshold>
									<split pos="left">
										<output> -5.360560608096421E-4 </output>
									</split>
									<split pos="right">
										<output> 0.4845025837421417 </output>
									</split>
								</split>
								<split pos="right">
									<output> 0.25066378712654114 </output>
								</split>
							</split>
							<split pos="right">
								<output> 0.10122379660606384 </output>
							</split>
						</split>
						<split pos="right">
							<output> 0.5952186584472656 </output>
						</split>
					</split>
					<split pos="right">
						<feature> 51 </feature>
						<threshold> 24.952372 </threshold>
						<split pos="left">
							<feature> 107 </feature>
							<threshold> 9.81659 </threshold>
							<split pos="left">
								<output> -0.020350271835923195 </output>
							</split>
							<split pos="right">
								<output> 0.15495583415031433 </output>
							</split>
						</split>
						<split pos="right">
							<output> -0.32443103194236755 </output>
						</split>
					</split>
				</split>
				<split pos="right">
					<output> 0.21021002531051636 </output>
				</split>
			</split>
			<split pos="right">
				<output> 0.12638984620571136 </output>
			</split>
		</split>
	</tree>
	<tree id="28" weight="0.1">
		<split>
			<feature> 75 </feature>
			<threshold> 8.382653 </threshold>
			<split pos="left">
				<feature> 107 </feature>
				<threshold> 8.81262 </threshold>
				<split pos="left">
					<feature> 16 </feature>
					<threshold> 0.8594998 </threshold>
					<split pos="left">
						<feature> 31 </feature>
						<threshold> 0.0 </threshold>
						<split pos="left">
							<feature> 51 </feature>
							<threshold> 5.703399 </threshold>
							<split pos="left">
								<feature> 32 </feature>
								<threshold> 1.4418545 </threshold>
								<split pos="left">
									<output> 0.0013023549690842628 </output>
								</split>
								<split pos="right">
									<output> 0.23026666045188904 </output>
								</split>
							</split>
							<split pos="right">
								<output> 0.09812561422586441 </output>
							</split>
						</split>
						<split pos="right">
							<output> 0.5526093244552612 </output>
						</split>
					</split>
					<split pos="right">
						<feature> 51 </feature>
						<threshold> 23.526522 </threshold>
						<split pos="left">
							<feature> 74 </feature>
							<threshold> 14.385641 </threshold>
							<split pos="left">
								<feature> 66 </feature>
								<threshold> 1.3084437 </threshold>
								<split pos="left">
									<output> -0.04557870700955391 </output>
								</split>
								<split pos="right">
									<output> 0.02202342078089714 </output>
								</split>
							</split>
							<split pos="right">
								<output> 0.7058273553848267 </output>
							</split>
						</split>
						<split pos="right">
							<output> -0.37300583720207214 </output>
						</split>
					</split>
				</split>
				<split pos="right">
					<output> 0.13668324053287506 </output>
				</split>
			</split>
			<split pos="right">
				<output> 0.13747648894786835 </output>
			</split>
		</split>
	</tree>
	<tree id="29" weight="0.1">
		<split>
			<feature> 109 </feature>
			<threshold> 4.970083 </threshold>
			<split pos="left">
				<feature> 1 </feature>
				<threshold> 9.804711 </threshold>
				<split pos="left">
					<feature> 20 </feature>
					<threshold> 1.6241716 </threshold>
					<split pos="left">
						<feature> 74 </feature>
						<threshold> 2.6595287 </threshold>
						<split pos="left">
							<feature> 3 </feature>
							<threshold> 5.494707 </threshold>
							<split pos="left">
								<output> 0.010298863984644413 </output>
							</split>
							<split pos="right">
								<output> 0.26197633147239685 </output>
							</split>
						</split>
						<split pos="right">
							<output> -0.09276217967271805 </output>
						</split>
					</split>
					<split pos="right">
						<feature> 73 </feature>
						<threshold> 4.1783133 </threshold>
						<split pos="left">
							<feature> 13 </feature>
							<threshold> 11.352831 </threshold>
							<split pos="left">
								<feature> 93 </feature>
								<threshold> 5.4545345 </threshold>
								<split pos="left">
									<feature> 51 </feature>
									<threshold> 6.0598617 </threshold>
									<split pos="left">
										<output> 0.005536061245948076 </output>
									</split>
									<split pos="right">
										<output> 0.07935554534196854 </output>
									</split>
								</split>
								<split pos="right">
									<output> -0.10597415268421173 </output>
								</split>
							</split>
							<split pos="right">
								<output> 0.21302780508995056 </output>
							</split>
						</split>
						<split pos="right">
							<output> 0.22050179541110992 </output>
						</split>
					</split>
				</split>
				<split pos="right">
					<output> 0.2754392921924591 </output>
				</split>
			</split>
			<split pos="right">
				<output> 0.20964767038822174 </output>
			</split>
		</split>
	</tree>
	<tree id="30" weight="0.1">
		<split>
			<feature> 111 </feature>
			<threshold> 4.972068 </threshold>
			<split pos="left">
				<feature> 74 </feature>
				<threshold> 14.264753 </threshold>
				<split pos="left">
					<feature> 91 </feature>
					<threshold> 2.0369895 </threshold>
					<split pos="left">
						<feature> 31 </feature>
						<threshold> 4.370475 </threshold>
						<split pos="left">
							<feature> 55 </feature>
							<threshold> 10.702063 </threshold>
							<split pos="left">
								<feature> 49 </feature>
								<threshold> 8.550912 </threshold>
								<split pos="left">
									<feature> 102 </feature>
									<threshold> 7.2913327 </threshold>
									<split pos="left">
										<feature> 1 </feature>
										<threshold> 6.7944956 </threshold>
										<split pos="left">
											<feature> 87 </feature>
											<threshold> 4.9970365 </threshold>
											<split pos="left">
												<output> 0.0100622633472085 </output>
											</split>
											<split pos="right">
												<output> -0.16915884613990784 </output>
											</split>
										</split>
										<split pos="right">
											<output> -0.1518436074256897 </output>
										</split>
									</split>
									<split pos="right">
										<output> 0.3756996989250183 </output>
									</split>
								</split>
								<split pos="right">
									<output> 0.1516042798757553 </output>
								</split>
							</split>
							<split pos="right">
								<output> 0.09408611804246902 </output>
							</split>
						</split>
						<split pos="right">
							<output> 0.5099563598632812 </output>
						</split>
					</split>
					<split pos="right">
						<output> -0.08087967336177826 </output>
					</split>
				</split>
				<split pos="right">
					<output> 0.293880820274353 </output>
				</split>
			</split>
			<split pos="right">
				<output> 0.1689891368150711 </output>
			</split>
		</split>
	</tree>
	<tree id="31" weight="0.1">
		<split>
			<feature> 3 </feature>
			<threshold> 8.55605 </threshold>
			<split pos="left">
				<feature> 20 </feature>
				<threshold> 1.6241716 </threshold>
				<split pos="left">
					<feature> 62 </feature>
					<threshold> 3.7675893 </threshold>
					<split pos="left">
						<feature> 8 </feature>
						<threshold> 17.108208 </threshold>
						<split pos="left">
							<feature> 19 </feature>
							<threshold> 0.95402956 </threshold>
							<split pos="left">
								<output> -0.012660867534577847 </output>
							</split>
							<split pos="right">
								<output> 0.06835969537496567 </output>
							</split>
						</split>
						<split pos="right">
							<output> 0.3188275098800659 </output>
						</split>
					</split>
					<split pos="right">
						<output> -0.13728342950344086 </output>
					</split>
				</split>
				<split pos="right">
					<feature> 73 </feature>
					<threshold> 4.1783133 </threshold>
					<split pos="left">
						<feature> 21 </feature>
						<threshold> 1.073353 </threshold>
						<split pos="left">
							<output> 0.11770866066217422 </output>
						</split>
						<split pos="right">
							<feature> 106 </feature>
							<threshold> 0.52081716 </threshold>
							<split pos="left">
								<output> 0.10831494629383087 </output>
							</split>
							<split pos="right">
								<feature> 97 </feature>
								<threshold> 2.451601 </threshold>
								<split pos="left">
									<output> -0.024891037493944168 </output>
								</split>
								<split pos="right">
									<output> 0.05523291602730751 </output>
								</split>
							</split>
						</split>
					</split>
					<split pos="right">
						<output> 0.2086808979511261 </output>
					</split>
				</split>
			</split>
			<split pos="right">
				<output> 0.244205042719841 </output>
			</split>
		</split>
	</tree>
	<tree id="32" weight="0.1">
		<split>
			<feature> 74 </feature>
			<threshold> 7.495039 </threshold>
			<split pos="left">
				<feature> 107 </feature>
				<threshold> 9.147277 </threshold>
				<split pos="left">
					<feature> 81 </feature>
					<threshold> 12.35562 </threshold>
					<split pos="left">
						<feature> 107 </feature>
						<threshold> 3.23501 </threshold>
						<split pos="left">
							<feature> 33 </feature>
							<threshold> 1.448064 </threshold>
							<split pos="left">
								<feature> 57 </feature>
								<threshold> 13.339397 </threshold>
								<split pos="left">
									<output> 0.021947957575321198 </output>
								</split>
								<split pos="right">
									<feature> 51 </feature>
									<threshold> 23.526522 </threshold>
									<split pos="left">
										<feature> 103 </feature>
										<threshold> 3.4237442 </threshold>
										<split pos="left">
											<output> -0.02639414370059967 </output>
										</split>
										<split pos="right">
											<output> 0.24604131281375885 </output>
										</split>
									</split>
									<split pos="right">
										<output> -0.29123106598854065 </output>
									</split>
								</split>
							</split>
							<split pos="right">
								<output> 0.2099239081144333 </output>
							</split>
						</split>
						<split pos="right">
							<feature> 55 </feature>
							<threshold> 12.842475 </threshold>
							<split pos="left">
								<output> 0.042686183005571365 </output>
							</split>
							<split pos="right">
								<output> 0.23097127676010132 </output>
							</split>
						</split>
					</split>
					<split pos="right">
						<output> -0.05865343660116196 </output>
					</split>
				</split>
				<split pos="right">
					<output> 0.12660984694957733 </output>
				</split>
			</split>
			<split pos="right">
				<output> 0.11148648709058762 </output>
			</split>
		</split>
	</tree>
	<tree id="33" weight="0.1">
		<split>
			<feature> 111 </feature>
			<threshold> 4.972068 </threshold>
			<split pos="left">
				<feature> 91 </feature>
				<threshold> 2.0369895 </threshold>
				<split pos="left">
					<feature> 31 </feature>
					<threshold> 4.321869 </threshold>
					<split pos="left">
						<feature> 77 </feature>
						<threshold> 11.653954 </threshold>
						<split pos="left">
							<feature> 64 </feature>
							<threshold> 4.9134817 </threshold>
							<split pos="left">
								<feature> 87 </feature>
								<threshold> 3.6148775 </threshold>
								<split pos="left">
									<feature> 62 </feature>
									<threshold> 2.770286 </threshold>
									<split pos="left">
										<feature> 78 </feature>
										<threshold> 21.910282 </threshold>
										<split pos="left">
											<feature> 50 </feature>
											<threshold> 20.413227 </threshold>
											<split pos="left">
												<output> 0.0032434898894280195 </output>
											</split>
											<split pos="right">
												<output> 0.2718183398246765 </output>
											</split>
										</split>
										<split pos="right">
											<output> -0.6108707785606384 </output>
										</split>
									</split>
									<split pos="right">
										<output> 0.11837145686149597 </output>
									</split>
								</split>
								<split pos="right">
									<output> -0.12246010452508926 </output>
								</split>
							</split>
							<split pos="right">
								<output> 0.18730781972408295 </output>
							</split>
						</split>
						<split pos="right">
							<output> 0.10662312805652618 </output>
						</split>
					</split>
					<split pos="right">
						<output> 0.4185795187950134 </output>
					</split>
				</split>
				<split pos="right">
					<output> -0.06842246651649475 </output>
				</split>
			</split>
			<split pos="right">
				<output> 0.13867641985416412 </output>
			</split>
		</split>
	</tree>
	<tree id="34" weight="0.1">
		<split>
			<feature> 75 </feature>
			<threshold> 12.446984 </threshold>
			<split pos="left">
				<feature> 39 </feature>
				<threshold> 9.102121 </threshold>
				<split pos="left">
					<feature> 31 </feature>
					<threshold> 0.0 </threshold>
					<split pos="left">
						<feature> 107 </feature>
						<threshold> 3.904322 </threshold>
						<split pos="left">
							<feature> 91 </feature>
							<threshold> 1.5843252 </threshold>
							<split pos="left">
								<feature> 78 </feature>
								<threshold> 19.013065 </threshold>
								<split pos="left">
									<feature> 57 </feature>
									<threshold> 13.339397 </threshold>
									<split pos="left">
										<output> 0.026979517191648483 </output>
									</split>
									<split pos="right">
										<output> -0.017275653779506683 </output>
									</split>
								</split>
								<split pos="right">
									<output> -0.37036776542663574 </output>
								</split>
							</split>
							<split pos="right">
								<output> -0.1190502867102623 </output>
							</split>
						</split>
						<split pos="right">
							<feature> 14 </feature>
							<threshold> 4.442661 </threshold>
							<split pos="left">
								<output> 0.14332319796085358 </output>
							</split>
							<split pos="right">
								<feature> 77 </feature>
								<threshold> 14.8630085 </threshold>
								<split pos="left">
									<output> 0.015530163422226906 </output>
								</split>
								<split pos="right">
									<output> 0.1842092126607895 </output>
								</split>
							</split>
						</split>
					</split>
					<split pos="right">
						<output> 0.2007480263710022 </output>
					</split>
				</split>
				<split pos="right">
					<output> -0.167222261428833 </output>
				</split>
			</split>
			<split pos="right">
				<output> 0.1910424530506134 </output>
			</split>
		</split>
	</tree>
	<tree id="35" weight="0.1">
		<split>
			<feature> 20 </feature>
			<threshold> 1.6241716 </threshold>
			<split pos="left">
				<feature> 62 </feature>
				<threshold> 3.7675893 </threshold>
				<split pos="left">
					<output> 0.0040349713526666164 </output>
				</split>
				<split pos="right">
					<output> -0.13669295608997345 </output>
				</split>
			</split>
			<split pos="right">
				<feature> 62 </feature>
				<threshold> 7.645983 </threshold>
				<split pos="left">
					<feature> 7 </feature>
					<threshold> 2.8089693 </threshold>
					<split pos="left">
						<feature> 88 </feature>
						<threshold> 3.311259 </threshold>
						<split pos="left">
							<feature> 78 </feature>
							<threshold> 20.280598 </threshold>
							<split pos="left">
								<feature> 49 </feature>
								<threshold> 13.681458 </threshold>
								<split pos="left">
									<feature> 52 </feature>
									<threshold> 9.2800045 </threshold>
									<split pos="left">
										<feature> 76 </feature>
										<threshold> 3.4185176 </threshold>
										<split pos="left">
											<output> 0.010778478346765041 </output>
										</split>
										<split pos="right">
											<output> -0.13687948882579803 </output>
										</split>
									</split>
									<split pos="right">
										<output> 0.27538278698921204 </output>
									</split>
								</split>
								<split pos="right">
									<output> -0.48671969771385193 </output>
								</split>
							</split>
							<split pos="right">
								<output> -0.47941160202026367 </output>
							</split>
						</split>
						<split pos="right">
							<output> 0.27465561032295227 </output>
						</split>
					</split>
					<split pos="right">
						<output> 0.09926533699035645 </output>
					</split>
				</split>
				<split pos="right">
					<output> 0.3427051305770874 </output>
				</split>
			</split>
		</split>
	</tree>
	<tree id="36" weight="0.1">
		<split>
			<feature> 3 </feature>
			<threshold> 8.477554 </threshold>
			<split pos="left">
				<feature> 19 </feature>
				<threshold> 1.6102223 </threshold>
				<split pos="left">
					<feature> 73 </feature>
					<threshold> 3.1619666 </threshold>
					<split pos="left">
						<feature> 79 </feature>
						<threshold> 3.573395 </threshold>
						<split pos="left">
							<feature> 73 </feature>
							<threshold> 2.1456196 </threshold>
							<split pos="left">
								<output> -0.02594836987555027 </output>
							</split>
							<split pos="right">
								<output> 0.04152987524867058 </output>
							</split>
						</split>
						<split pos="right">
							<output> 0.07808005064725876 </output>
						</split>
					</split>
					<split pos="right">
						<output> -0.09637554734945297 </output>
					</split>
				</split>
				<split pos="right">
					<feature> 88 </feature>
					<threshold> 4.9134817 </threshold>
					<split pos="left">
						<feature> 7 </feature>
						<threshold> 2.8089693 </threshold>
						<split pos="left">
							<feature> 106 </feature>
							<threshold> 2.3957586 </threshold>
							<split pos="left">
								<feature> 97 </feature>
								<threshold> 8.91491 </threshold>
								<split pos="left">
									<output> -0.00819238368421793 </output>
								</split>
								<split pos="right">
									<output> -0.3139040768146515 </output>
								</split>
							</split>
							<split pos="right">
								<output> 0.057194944471120834 </output>
							</split>
						</split>
						<split pos="right">
							<output> 0.10306784510612488 </output>
						</split>
					</split>
					<split pos="right">
						<output> 0.24757444858551025 </output>
					</split>
				</split>
			</split>
			<split pos="right">
				<output> 0.18545477092266083 </output>
			</split>
		</split>
	</tree>
	<tree id="37" weight="0.1">
		<split>
			<feature> 5 </feature>
			<threshold> 11.992533 </threshold>
			<split pos="left">
				<feature> 110 </feature>
				<threshold> 6.344711 </threshold>
				<split pos="left">
					<feature> 41 </feature>
					<threshold> 6.2530704 </threshold>
					<split pos="left">
						<feature> 31 </feature>
						<threshold> 0.0 </threshold>
						<split pos="left">
							<feature> 99 </feature>
							<threshold> 12.597404 </threshold>
							<split pos="left">
								<feature> 63 </feature>
								<threshold> 0.0 </threshold>
								<split pos="left">
									<feature> 50 </feature>
									<threshold> 13.312983 </threshold>
									<split pos="left">
										<feature> 57 </feature>
										<threshold> 17.50796 </threshold>
										<split pos="left">
											<feature> 54 </feature>
											<threshold> 12.006067 </threshold>
											<split pos="left">
												<output> 0.006340610794723034 </output>
											</split>
											<split pos="right">
												<output> 0.10436572134494781 </output>
											</split>
										</split>
										<split pos="right">
											<output> -0.024202987551689148 </output>
										</split>
									</split>
									<split pos="right">
										<output> 0.16333690285682678 </output>
									</split>
								</split>
								<split pos="right">
									<output> -0.07262387126684189 </output>
								</split>
							</split>
							<split pos="right">
								<output> 0.04932017624378204 </output>
							</split>
						</split>
						<split pos="right">
							<output> 0.2442276030778885 </output>
						</split>
					</split>
					<split pos="right">
						<output> -0.14074638485908508 </output>
					</split>
				</split>
				<split pos="right">
					<output> 0.17099106311798096 </output>
				</split>
			</split>
			<split pos="right">
				<output> 0.3813842535018921 </output>
			</split>
		</split>
	</tree>
	<tree id="38" weight="0.1">
		<split>
			<feature> 76 </feature>
			<threshold> 13.022921 </threshold>
			<split pos="left">
				<feature> 68 </feature>
				<threshold> 12.410577 </threshold>
				<split pos="left">
					<feature> 107 </feature>
					<threshold> 8.701068 </threshold>
					<split pos="left">
						<feature> 81 </feature>
						<threshold> 11.997487 </threshold>
						<split pos="left">
							<feature> 99 </feature>
							<threshold> 12.597404 </threshold>
							<split pos="left">
								<feature> 57 </feature>
								<threshold> 17.50796 </threshold>
								<split pos="left">
									<feature> 99 </feature>
									<threshold> 1.9890646 </threshold>
									<split pos="left">
										<output> -0.0040039499290287495 </output>
									</split>
									<split pos="right">
										<output> 0.07681594789028168 </output>
									</split>
								</split>
								<split pos="right">
									<feature> 16 </feature>
									<threshold> 12.769701 </threshold>
									<split pos="left">
										<feature> 51 </feature>
										<threshold> 23.526522 </threshold>
										<split pos="left">
											<output> -0.01693502441048622 </output>
										</split>
										<split pos="right">
											<output> -0.17830008268356323 </output>
										</split>
									</split>
									<split pos="right">
										<output> 0.36415600776672363 </output>
									</split>
								</split>
							</split>
							<split pos="right">
								<output> 0.10216185450553894 </output>
							</split>
						</split>
						<split pos="right">
							<output> -0.04613843560218811 </output>
						</split>
					</split>
					<split pos="right">
						<output> 0.09382409602403641 </output>
					</split>
				</split>
				<split pos="right">
					<output> -0.1319667249917984 </output>
				</split>
			</split>
			<split pos="right">
				<output> 0.16856029629707336 </output>
			</split>
		</split>
	</tree>
	<tree id="39" weight="0.1">
		<split>
			<feature> 20 </feature>
			<threshold> 1.6241716 </threshold>
			<split pos="left">
				<feature> 74 </feature>
				<threshold> 2.6595287 </threshold>
				<split pos="left">
					<output> 0.010137694887816906 </output>
				</split>
				<split pos="right">
					<output> -0.07033301889896393 </output>
				</split>
			</split>
			<split pos="right">
				<feature> 62 </feature>
				<threshold> 7.645983 </threshold>
				<split pos="left">
					<feature> 92 </feature>
					<threshold> 6.1121616 </threshold>
					<split pos="left">
						<feature> 65 </feature>
						<threshold> 6.8589234 </threshold>
						<split pos="left">
							<feature> 31 </feature>
							<threshold> 0.0 </threshold>
							<split pos="left">
								<feature> 21 </feature>
								<threshold> 1.9765837 </threshold>
								<split pos="left">
									<output> 0.07425356656312943 </output>
								</split>
								<split pos="right">
									<feature> 106 </feature>
									<threshold> 0.729144 </threshold>
									<split pos="left">
										<output> 0.09596467763185501 </output>
									</split>
									<split pos="right">
										<feature> 56 </feature>
										<threshold> 0.43172762 </threshold>
										<split pos="left">
											<output> -0.2567274868488312 </output>
										</split>
										<split pos="right">
											<output> -0.004580232780426741 </output>
										</split>
									</split>
								</split>
							</split>
							<split pos="right">
								<output> 0.30532583594322205 </output>
							</split>
						</split>
						<split pos="right">
							<output> 0.30694130063056946 </output>
						</split>
					</split>
					<split pos="right">
						<output> -0.11592954397201538 </output>
					</split>
				</split>
				<split pos="right">
					<output> 0.2879142463207245 </output>
				</split>
			</split>
		</split>
	</tree>
	<tree id="40" weight="0.1">
		<split>
			<feature> 2 </feature>
			<threshold> 14.344644 </threshold>
			<split pos="left">
				<feature> 19 </feature>
				<threshold> 0.0 </threshold>
				<split pos="left">
					<feature> 73 </feature>
					<threshold> 3.274894 </threshold>
					<split pos="left">
						<feature> 79 </feature>
						<threshold> 2.429909 </threshold>
						<split pos="left">
							<output> -0.014931868761777878 </output>
						</split>
						<split pos="right">
							<output> 0.05853290110826492 </output>
						</split>
					</split>
					<split pos="right">
						<output> -0.09989337623119354 </output>
					</split>
				</split>
				<split pos="right">
					<feature> 73 </feature>
					<threshold> 4.1783133 </threshold>
					<split pos="left">
						<feature> 13 </feature>
						<threshold> 2.9242141 </threshold>
						<split pos="left">
							<feature> 76 </feature>
							<threshold> 6.99982 </threshold>
							<split pos="left">
								<feature> 7 </feature>
								<threshold> 8.574748 </threshold>
								<split pos="left">
									<feature> 79 </feature>
									<threshold> 0.0 </threshold>
									<split pos="left">
										<output> 0.05000191926956177 </output>
									</split>
									<split pos="right">
										<output> -0.022372236475348473 </output>
									</split>
								</split>
								<split pos="right">
									<output> 0.5398319959640503 </output>
								</split>
							</split>
							<split pos="right">
								<output> -0.28473150730133057 </output>
							</split>
						</split>
						<split pos="right">
							<output> 0.05949927121400833 </output>
						</split>
					</split>
					<split pos="right">
						<output> 0.16623173654079437 </output>
					</split>
				</split>
			</split>
			<split pos="right">
				<output> 0.24900291860103607 </output>
			</split>
		</split>
	</tree>
	<tree id="41" weight="0.1">
		<split>
			<feature> 5 </feature>
			<threshold> 11.992533 </threshold>
			<split pos="left">
				<feature> 25 </feature>
				<threshold> 7.5254045 </threshold>
				<split pos="left">
					<feature> 111 </feature>
					<threshold> 4.972068 </threshold>
					<split pos="left">
						<feature> 91 </feature>
						<threshold> 2.0369895 </threshold>
						<split pos="left">
							<feature> 31 </feature>
							<threshold> 4.370475 </threshold>
							<split pos="left">
								<feature> 102 </feature>
								<threshold> 8.258549 </threshold>
								<split pos="left">
									<feature> 6 </feature>
									<threshold> 2.7829857 </threshold>
									<split pos="left">
										<feature> 8 </feature>
										<threshold> 20.010494 </threshold>
										<split pos="left">
											<feature> 101 </feature>
											<threshold> 1.8637149 </threshold>
											<split pos="left">
												<output> 0.004381935577839613 </output>
											</split>
											<split pos="right">
												<output> 0.10933031886816025 </output>
											</split>
										</split>
										<split pos="right">
											<output> 0.30075135827064514 </output>
										</split>
									</split>
									<split pos="right">
										<output> -0.04369007796049118 </output>
									</split>
								</split>
								<split pos="right">
									<output> 0.31836262345314026 </output>
								</split>
							</split>
							<split pos="right">
								<output> 0.3289584517478943 </output>
							</split>
						</split>
						<split pos="right">
							<output> -0.06657931208610535 </output>
						</split>
					</split>
					<split pos="right">
						<output> 0.10999489575624466 </output>
					</split>
				</split>
				<split pos="right">
					<output> -0.19146741926670074 </output>
				</split>
			</split>
			<split pos="right">
				<output> 0.3310723602771759 </output>
			</split>
		</split>
	</tree>
	<tree id="42" weight="0.1">
		<split>
			<feature> 51 </feature>
			<threshold> 4.2775493 </threshold>
			<split pos="left">
				<feature> 63 </feature>
				<threshold> 1.0813241 </threshold>
				<split pos="left">
					<feature> 17 </feature>
					<threshold> 12.447281 </threshold>
					<split pos="left">
						<feature> 5 </feature>
						<threshold> 4.209293 </threshold>
						<split pos="left">
							<feature> 33 </feature>
							<threshold> 1.5514971 </threshold>
							<split pos="left">
								<feature> 50 </feature>
								<threshold> 9.171165 </threshold>
								<split pos="left">
									<feature> 81 </feature>
									<threshold> 15.57882 </threshold>
									<split pos="left">
										<feature> 54 </feature>
										<threshold> 56.828674 </threshold>
										<split pos="left">
											<output> -0.01752360351383686 </output>
										</split>
										<split pos="right">
											<output> 0.28540220856666565 </output>
										</split>
									</split>
									<split pos="right">
										<output> -0.13709288835525513 </output>
									</split>
								</split>
								<split pos="right">
									<output> 0.19551804661750793 </output>
								</split>
							</split>
							<split pos="right">
								<output> 0.2309139221906662 </output>
							</split>
						</split>
						<split pos="right">
							<output> 0.42218029499053955 </output>
						</split>
					</split>
					<split pos="right">
						<output> 0.1397322416305542 </output>
					</split>
				</split>
				<split pos="right">
					<output> -0.11881314218044281 </output>
				</split>
			</split>
			<split pos="right">
				<feature> 16 </feature>
				<threshold> 0.49114275 </threshold>
				<split pos="left">
					<output> 0.05122239515185356 </output>
				</split>
				<split pos="right">
					<output> -0.006432631053030491 </output>
				</split>
			</split>
		</split>
	</tree>
	<tree id="43" weight="0.1">
		<split>
			<feature> 1 </feature>
			<threshold> 10.836785 </threshold>
			<split pos="left">
				<feature> 19 </feature>
				<threshold> 0.0 </threshold>
				<split pos="left">
					<feature> 73 </feature>
					<threshold> 3.274894 </threshold>
					<split pos="left">
						<feature> 73 </feature>
						<threshold> 1.8068374 </threshold>
						<split pos="left">
							<output> -0.016740119084715843 </output>
						</split>
						<split pos="right">
							<output> 0.0519401878118515 </output>
						</split>
					</split>
					<split pos="right">
						<output> -0.0993817150592804 </output>
					</split>
				</split>
				<split pos="right">
					<feature> 88 </feature>
					<threshold> 4.9134817 </threshold>
					<split pos="left">
						<feature> 4 </feature>
						<threshold> 7.000551 </threshold>
						<split pos="left">
							<feature> 31 </feature>
							<threshold> 4.8331423 </threshold>
							<split pos="left">
								<feature> 92 </feature>
								<threshold> 2.3045874 </threshold>
								<split pos="left">
									<feature> 62 </feature>
									<threshold> 1.7729828 </threshold>
									<split pos="left">
										<output> 0.008516650646924973 </output>
									</split>
									<split pos="right">
										<output> 0.2245945781469345 </output>
									</split>
								</split>
								<split pos="right">
									<output> -0.0523500069975853 </output>
								</split>
							</split>
							<split pos="right">
								<output> 0.30858930945396423 </output>
							</split>
						</split>
						<split pos="right">
							<output> 0.3779173791408539 </output>
						</split>
					</split>
					<split pos="right">
						<output> 0.20792384445667267 </output>
					</split>
				</split>
			</split>
			<split pos="right">
				<output> 0.18207192420959473 </output>
			</split>
		</split>
	</tree>
	<tree id="44" weight="0.1">
		<split>
			<feature> 76 </feature>
			<threshold> 13.185707 </threshold>
			<split pos="left">
				<feature> 52 </feature>
				<threshold> 39.71845 </threshold>
				<split pos="left">
					<feature> 13 </feature>
					<threshold> 23.221682 </threshold>
					<split pos="left">
						<feature> 107 </feature>
						<threshold> 3.23501 </threshold>
						<split pos="left">
							<feature> 33 </feature>
							<threshold> 1.448064 </threshold>
							<split pos="left">
								<feature> 74 </feature>
								<threshold> 2.05509 </threshold>
								<split pos="left">
									<output> 0.0021224648226052523 </output>
								</split>
								<split pos="right">
									<output> -0.05012335255742073 </output>
								</split>
							</split>
							<split pos="right">
								<output> 0.155175119638443 </output>
							</split>
						</split>
						<split pos="right">
							<feature> 17 </feature>
							<threshold> 3.71988 </threshold>
							<split pos="left">
								<output> 0.09734465926885605 </output>
							</split>
							<split pos="right">
								<feature> 54 </feature>
								<threshold> 0.80040437 </threshold>
								<split pos="left">
									<output> 0.26266419887542725 </output>
								</split>
								<split pos="right">
									<feature> 90 </feature>
									<threshold> 4.685352 </threshold>
									<split pos="left">
										<output> -0.018165796995162964 </output>
									</split>
									<split pos="right">
										<output> 0.07912220805883408 </output>
									</split>
								</split>
							</split>
						</split>
					</split>
					<split pos="right">
						<output> -0.2834021747112274 </output>
					</split>
				</split>
				<split pos="right">
					<output> -0.5322713255882263 </output>
				</split>
			</split>
			<split pos="right">
				<output> 0.1392413079738617 </output>
			</split>
		</split>
	</tree>
	<tree id="45" weight="0.1">
		<split>
			<feature> 37 </feature>
			<threshold> 5.4443874 </threshold>
			<split pos="left">
				<feature> 31 </feature>
				<threshold> 0.0 </threshold>
				<split pos="left">
					<feature> 3 </feature>
					<threshold> 8.634546 </threshold>
					<split pos="left">
						<feature> 6 </feature>
						<threshold> 2.7829857 </threshold>
						<split pos="left">
							<feature> 63 </feature>
							<threshold> 5.839148 </threshold>
							<split pos="left">
								<feature> 73 </feature>
								<threshold> 11.405669 </threshold>
								<split pos="left">
									<feature> 15 </feature>
									<threshold> 27.61166 </threshold>
									<split pos="left">
										<feature> 102 </feature>
										<threshold> 2.0832362 </threshold>
										<split pos="left">
											<feature> 57 </feature>
											<threshold> 17.50796 </threshold>
											<split pos="left">
												<output> 0.024868512526154518 </output>
											</split>
											<split pos="right">
												<output> -0.023545999079942703 </output>
											</split>
										</split>
										<split pos="right">
											<output> 0.05800133943557739 </output>
										</split>
									</split>
									<split pos="right">
										<output> 0.4803204834461212 </output>
									</split>
								</split>
								<split pos="right">
									<output> 0.5055686831474304 </output>
								</split>
							</split>
							<split pos="right">
								<output> 0.21412982046604156 </output>
							</split>
						</split>
						<split pos="right">
							<output> -0.04991212114691734 </output>
						</split>
					</split>
					<split pos="right">
						<output> 0.16736599802970886 </output>
					</split>
				</split>
				<split pos="right">
					<output> 0.2008431851863861 </output>
				</split>
			</split>
			<split pos="right">
				<output> -0.1180698573589325 </output>
			</split>
		</split>
	</tree>
	<tree id="46" weight="0.1">
		<split>
			<feature> 20 </feature>
			<threshold> 2.3279803 </threshold>
			<split pos="left">
				<feature> 62 </feature>
				<threshold> 10.637887 </threshold>
				<split pos="left">
					<feature> 11 </feature>
					<threshold> 13.666436 </threshold>
					<split pos="left">
						<feature> 38 </feature>
						<threshold> 8.894358 </threshold>
						<split pos="left">
							<feature> 103 </feature>
							<threshold> 3.034682 </threshold>
							<split pos="left">
								<feature> 106 </feature>
								<threshold> 3.5415561 </threshold>
								<split pos="left">
									<output> -0.0011286677327007055 </output>
								</split>
								<split pos="right">
									<output> -0.09180090576410294 </output>
								</split>
							</split>
							<split pos="right">
								<output> 0.059105560183525085 </output>
							</split>
						</split>
						<split pos="right">
							<output> -0.2140914648771286 </output>
						</split>
					</split>
					<split pos="right">
						<output> 0.24351780116558075 </output>
					</split>
				</split>
				<split pos="right">
					<output> -0.2917439639568329 </output>
				</split>
			</split>
			<split pos="right">
				<feature> 90 </feature>
				<threshold> 9.370704 </threshold>
				<split pos="left">
					<feature> 108 </feature>
					<threshold> 0.9061675 </threshold>
					<split pos="left">
						<output> 0.08070871978998184 </output>
					</split>
					<split pos="right">
						<feature> 106 </feature>
						<threshold> 0.8333074 </threshold>
						<split pos="left">
							<output> 0.10807480663061142 </output>
						</split>
						<split pos="right">
							<output> -0.011954805813729763 </output>
						</split>
					</split>
				</split>
				<split pos="right">
					<output> 0.2597951591014862 </output>
				</split>
			</split>
		</split>
	</tree>
	<tree id="47" weight="0.1">
		<split>
			<feature> 51 </feature>
			<threshold> 5.3469367 </threshold>
			<split pos="left">
				<feature> 54 </feature>
				<threshold> 0.80040437 </threshold>
				<split pos="left">
					<output> 0.03791552782058716 </output>
				</split>
				<split pos="right">
					<feature> 32 </feature>
					<threshold> 1.4418545 </threshold>
					<split pos="left">
						<feature> 105 </feature>
						<threshold> 3.4269984 </threshold>
						<split pos="left">
							<feature> 14 </feature>
							<threshold> 29.829317 </threshold>
							<split pos="left">
								<feature> 63 </feature>
								<threshold> 1.0813241 </threshold>
								<split pos="left">
									<feature> 10 </feature>
									<threshold> 5.659318 </threshold>
									<split pos="left">
										<output> -0.01784832589328289 </output>
									</split>
									<split pos="right">
										<output> 0.166132852435112 </output>
									</split>
								</split>
								<split pos="right">
									<output> -0.10796112567186356 </output>
								</split>
							</split>
							<split pos="right">
								<output> 0.19238750636577606 </output>
							</split>
						</split>
						<split pos="right">
							<output> -0.12776055932044983 </output>
						</split>
					</split>
					<split pos="right">
						<output> 0.10534993559122086 </output>
					</split>
				</split>
			</split>
			<split pos="right">
				<feature> 15 </feature>
				<threshold> 1.1108149 </threshold>
				<split pos="left">
					<output> 0.14568877220153809 </output>
				</split>
				<split pos="right">
					<feature> 20 </feature>
					<threshold> 1.0105947 </threshold>
					<split pos="left">
						<output> -0.03646893426775932 </output>
					</split>
					<split pos="right">
						<output> 0.04838951304554939 </output>
					</split>
				</split>
			</split>
		</split>
	</tree>
	<tree id="48" weight="0.1">
		<split>
			<feature> 107 </feature>
			<threshold> 3.904322 </threshold>
			<split pos="left">
				<feature> 91 </feature>
				<threshold> 1.5843252 </threshold>
				<split pos="left">
					<feature> 33 </feature>
					<threshold> 1.448064 </threshold>
					<split pos="left">
						<feature> 75 </feature>
						<threshold> 10.541829 </threshold>
						<split pos="left">
							<feature> 51 </feature>
							<threshold> 22.100672 </threshold>
							<split pos="left">
								<feature> 98 </feature>
								<threshold> 21.174728 </threshold>
								<split pos="left">
									<feature> 9 </feature>
									<threshold> 11.245702 </threshold>
									<split pos="left">
										<feature> 14 </feature>
										<threshold> 9.308436 </threshold>
										<split pos="left">
											<output> -0.012356654740869999 </output>
										</split>
										<split pos="right">
											<output> 0.06049858406186104 </output>
										</split>
									</split>
									<split pos="right">
										<output> -0.18790706992149353 </output>
									</split>
								</split>
								<split pos="right">
									<output> 0.16706250607967377 </output>
								</split>
							</split>
							<split pos="right">
								<output> -0.16510237753391266 </output>
							</split>
						</split>
						<split pos="right">
							<output> 0.105425626039505 </output>
						</split>
					</split>
					<split pos="right">
						<output> 0.13956058025360107 </output>
					</split>
				</split>
				<split pos="right">
					<output> -0.09461220353841782 </output>
				</split>
			</split>
			<split pos="right">
				<feature> 78 </feature>
				<threshold> 3.259383 </threshold>
				<split pos="left">
					<output> 0.09480252861976624 </output>
				</split>
				<split pos="right">
					<output> 0.00471873302012682 </output>
				</split>
			</split>
		</split>
	</tree>
	<tree id="49" weight="0.1">
		<split>
			<feature> 5 </feature>
			<threshold> 12.54848 </threshold>
			<split pos="left">
				<feature> 4 </feature>
				<threshold> 2.6175954 </threshold>
				<split pos="left">
					<feature> 62 </feature>
					<threshold> 6.8703046 </threshold>
					<split pos="left">
						<feature> 73 </feature>
						<threshold> 8.921266 </threshold>
						<split pos="left">
							<feature> 18 </feature>
							<threshold> 4.763777 </threshold>
							<split pos="left">
								<feature> 81 </feature>
								<threshold> 11.81842 </threshold>
								<split pos="left">
									<feature> 107 </feature>
									<threshold> 3.23501 </threshold>
									<split pos="left">
										<feature> 103 </feature>
										<threshold> 6.925295 </threshold>
										<split pos="left">
											<feature> 49 </feature>
											<threshold> 14.251519 </threshold>
											<split pos="left">
												<output> -0.0028617277275770903 </output>
											</split>
											<split pos="right">
												<output> -0.26789653301239014 </output>
											</split>
										</split>
										<split pos="right">
											<output> 1.0612260103225708 </output>
										</split>
									</split>
									<split pos="right">
										<output> 0.051809366792440414 </output>
									</split>
								</split>
								<split pos="right">
									<output> -0.0649249479174614 </output>
								</split>
							</split>
							<split pos="right">
								<output> 0.06409747898578644 </output>
							</split>
						</split>
						<split pos="right">
							<output> 0.26043325662612915 </output>
						</split>
					</split>
					<split pos="right">
						<output> 0.18982276320457458 </output>
					</split>
				</split>
				<split pos="right">
					<output> -0.0325842909514904 </output>
				</split>
			</split>
			<split pos="right">
				<output> 0.28335627913475037 </output>
			</split>
		</split>
	</tree>
	<tree id="50" weight="0.1">
		<split>
			<feature> 68 </feature>
			<threshold> 10.995335 </threshold>
			<split pos="left">
				<feature> 107 </feature>
				<threshold> 8.701068 </threshold>
				<split pos="left">
					<feature> 93 </feature>
					<threshold> 12.765921 </threshold>
					<split pos="left">
						<feature> 81 </feature>
						<threshold> 12.35562 </threshold>
						<split pos="left">
							<feature> 55 </feature>
							<threshold> 11.558228 </threshold>
							<split pos="left">
								<feature> 53 </feature>
								<threshold> 10.3457775 </threshold>
								<split pos="left">
									<feature> 50 </feature>
									<threshold> 11.833762 </threshold>
									<split pos="left">
										<feature> 68 </feature>
										<threshold> 7.8382564 </threshold>
										<split pos="left">
											<feature> 41 </feature>
											<threshold> 3.3670406 </threshold>
											<split pos="left">
												<output> -0.007337967399507761 </output>
											</split>
											<split pos="right">
												<output> -0.1809321641921997 </output>
											</split>
										</split>
										<split pos="right">
											<output> 0.18157197535037994 </output>
										</split>
									</split>
									<split pos="right">
										<output> -0.23466257750988007 </output>
									</split>
								</split>
								<split pos="right">
									<output> 0.03871222585439682 </output>
								</split>
							</split>
							<split pos="right">
								<output> 0.07917647808790207 </output>
							</split>
						</split>
						<split pos="right">
							<output> -0.048780787736177444 </output>
						</split>
					</split>
					<split pos="right">
						<output> 0.3157508671283722 </output>
					</split>
				</split>
				<split pos="right">
					<output> 0.07350152730941772 </output>
				</split>
			</split>
			<split pos="right">
				<output> -0.07971438765525818 </output>
			</split>
		</split>
	</tree>
	<tree id="51" weight="0.1">
		<split>
			<feature> 51 </feature>
			<threshold> 4.2775493 </threshold>
			<split pos="left">
				<feature> 63 </feature>
				<threshold> 1.0813241 </threshold>
				<split pos="left">
					<feature> 17 </feature>
					<threshold> 13.591858 </threshold>
					<split pos="left">
						<feature> 5 </feature>
						<threshold> 4.765237 </threshold>
						<split pos="left">
							<feature> 32 </feature>
							<threshold> 1.4418545 </threshold>
							<split pos="left">
								<feature> 50 </feature>
								<threshold> 9.171165 </threshold>
								<split pos="left">
									<feature> 54 </feature>
									<threshold> 60.03029 </threshold>
									<split pos="left">
										<output> -0.019991686567664146 </output>
									</split>
									<split pos="right">
										<output> 0.2912377417087555 </output>
									</split>
								</split>
								<split pos="right">
									<output> 0.16824223101139069 </output>
								</split>
							</split>
							<split pos="right">
								<output> 0.16046209633350372 </output>
							</split>
						</split>
						<split pos="right">
							<output> 0.5083876252174377 </output>
						</split>
					</split>
					<split pos="right">
						<output> 0.1398991495370865 </output>
					</split>
				</split>
				<split pos="right">
					<output> -0.10373661667108536 </output>
				</split>
			</split>
			<split pos="right">
				<feature> 74 </feature>
				<threshold> 1.4506518 </threshold>
				<split pos="left">
					<output> 0.06003633886575699 </output>
				</split>
				<split pos="right">
					<feature> 20 </feature>
					<threshold> 3.8619225 </threshold>
					<split pos="left">
						<output> -0.018067412078380585 </output>
					</split>
					<split pos="right">
						<output> 0.06579957157373428 </output>
					</split>
				</split>
			</split>
		</split>
	</tree>
	<tree id="52" weight="0.1">
		<split>
			<feature> 92 </feature>
			<threshold> 4.8095717 </threshold>
			<split pos="left">
				<feature> 107 </feature>
				<threshold> 5.912262 </threshold>
				<split pos="left">
					<feature> 31 </feature>
					<threshold> 0.0 </threshold>
					<split pos="left">
						<feature> 98 </feature>
						<threshold> 40.424442 </threshold>
						<split pos="left">
							<feature> 73 </feature>
							<threshold> 8.582483 </threshold>
							<split pos="left">
								<feature> 97 </feature>
								<threshold> 8.91491 </threshold>
								<split pos="left">
									<feature> 51 </feature>
									<threshold> 10.693873 </threshold>
									<split pos="left">
										<feature> 7 </feature>
										<threshold> 4.878736 </threshold>
										<split pos="left">
											<feature> 64 </feature>
											<threshold> 4.4862223 </threshold>
											<split pos="left">
												<output> -0.0029612253420054913 </output>
											</split>
											<split pos="right">
												<output> 0.1771659106016159 </output>
											</split>
										</split>
										<split pos="right">
											<output> -0.06615477055311203 </output>
										</split>
									</split>
									<split pos="right">
										<output> 0.051729973405599594 </output>
									</split>
								</split>
								<split pos="right">
									<output> -0.07795411348342896 </output>
								</split>
							</split>
							<split pos="right">
								<output> 0.17854994535446167 </output>
							</split>
						</split>
						<split pos="right">
							<output> -0.4170639216899872 </output>
						</split>
					</split>
					<split pos="right">
						<output> 0.21718716621398926 </output>
					</split>
				</split>
				<split pos="right">
					<output> 0.053677305579185486 </output>
				</split>
			</split>
			<split pos="right">
				<output> -0.036772727966308594 </output>
			</split>
		</split>
	</tree>
	<tree id="53" weight="0.1">
		<split>
			<feature> 39 </feature>
			<threshold> 0.0 </threshold>
			<split pos="left">
				<feature> 35 </feature>
				<threshold> 1.2086641 </threshold>
				<split pos="left">
					<feature> 3 </feature>
					<threshold> 8.16357 </threshold>
					<split pos="left">
						<feature> 107 </feature>
						<threshold> 13.27471 </threshold>
						<split pos="left">
							<feature> 4 </feature>
							<threshold> 2.6175954 </threshold>
							<split pos="left">
								<feature> 101 </feature>
								<threshold> 1.7051008 </threshold>
								<split pos="left">
									<feature> 57 </feature>
									<threshold> 17.50796 </threshold>
									<split pos="left">
										<output> 0.023145506158471107 </output>
									</split>
									<split pos="right">
										<feature> 51 </feature>
										<threshold> 23.526522 </threshold>
										<split pos="left">
											<feature> 8 </feature>
											<threshold> 20.010494 </threshold>
											<split pos="left">
												<output> -0.01625256985425949 </output>
											</split>
											<split pos="right">
												<output> 0.2324681282043457 </output>
											</split>
										</split>
										<split pos="right">
											<output> -0.27664420008659363 </output>
										</split>
									</split>
								</split>
								<split pos="right">
